{"x": [[[0], [0], [0], [0]], [[0], [0], [0], [0]], [[0], [0], [1], [0]], [[0], [0], [0], [0]]], "head": {"W": [[[[0, 0]], [[0, 0]], [[0, 0]]], [[[0, 0]], [[0, 0]], [[0, 0]]], [[[0, 0]], [[0, 0]], [[0, 0]]]], "b": [0, 0], "a": [[[0, 0, 0, 0], [0, 0, 0, 0], [0, 0, 0, 0], [0, 0, 0, 0]], [[0, 0, 0, 0], [0, 0, 0, 0], [0, 0, 0, 0], [0, 0, 0, 0]]]}, "backbone": [{"W": [[[[-23535917, 34240242], [154128686, 45437612]], [[-10605704, 48695996], [271358550, -297074497]], [[117792189, -73276423], [-123534083, -162334412]]], [[[-282855242, 128290311], [146191001, 29282454]], [[-128340244, 280524194], [-395098567, -277894199]], [[33234734, 328142166], [399742246, 359082788]]], [[[-85198924, 244459525], [451201290, -145848230]], [[53685252, 442377], [-255312413, 25452917]], [[-218481630, -20060750], [-6021497, 120276138]]]], "b": [276928455, -1046447], "a": [[[0, 0, 0, 0], [0, 0, 0, 0], [0, 0, 0, 0], [0, 0, 0, 0]], [[0, 0, 0, 0], [0, 0, 0, 1], [0, 0, 0, 0], [0, 0, 0, 0]]]}, {"W": [[[[229327887, -31794552], [130675241, -234357581]], [[155232728, -351190686], [216675922, 62626563]], [[-403278619, -67817651], [-186463431, -17987369]]], [[[29543575, 257432371], [-338044435, -142458856]], [[419491112, -180224285], [132966220, 379893363]], [[233262554, -297593385], [-176231027, 167838946]]], [[[-49082145, -280546695], [67277797, 270212531]], [[14451273, -348237962], [204313755, 135780185]], [[-49805127, 127497762], [21607269, 160225779]]]], "b": [251989126, 178442076], "a": [[[0, 0, 0, 0], [0, 0, 1, 0], [0, 0, 2, 0], [0, 0, 0, 0]], [[1, 0, 0, 0], [0, 0, 0, 1], [0, 0, 1, 0], [0, 0, 0, 0]]]}], "tail": {"W": [[-150836736, -327563554, -349571913, -459439516, 25976636, 144398928, -279630363, 264566451, -397584587, -181191251, 34348264, 215393811, 144206971, -168330610, -104758270, -175195202, 205321550, -268968791, -72714642, 124249429, 3676673, -71845584, -301166445, -118270963, -383482188, -240809679, 54693524, -703795195, -97585604, -15561473, -443535805, 130900308], [79145610, -96876100, -356714875, 142899483, -39170377, -398979515, -42996980, -451705962, -250098974, -260542095, -664433002, -1131839156, -222757906, -66704027, -547949553, 242040843, -19871635, 154294655, -231070042, -31655271, 150904357, 313538849, -470863819, 22424428, 260995150, 98864853, -319300324, -391962528, 121875875, -869193673, -401329815, -322956234], [229311094, 336179197, 430013359, 70191547, 70566095, -223591253, 7920845, -555616736, 245011732, -11704507, 68112299, 80760553, 50219208, -399704069, -83146833, 115179576, 57497706, -121070787, -348314255, 464576364, -106472768, -311936617, -119181879, -170818612, -131667569, -70046790, -224495277, -619471967, -23937881, -349964887, -636375189, 115690924], [3395995, 284068257, 112355866, 18373528, -5722810, -262116611, 151174456, -175693795, 16477292, -547002017, 5655270, -406953961, 64378910, 97954825, 98132007, -519273758, -152559862, 124460928, 207792282, 53606853, -325476289, 292955220, 24730138, 185482204, -68619825, -300135195, -109514274, -109174743, -95088139, 114812732, -30858571, 305582523], [-425825000, -463702410, -614213109, -80932505, -172655419, 57698786, -30371994, -349479824, 50487258, -120079175, -52248530, -211284339, -398182869, -160198286, 173116490, -51703878, -74772865, -253974140, -74231476, -81406720, -108952045, -190544561, -292127460, -81751183, -199812755, 190235898, 88879339, 118470542, -371425480, -318416208, -44785328, -206217006], [-147453830, -224618316, -276300192, 22071866, 83514117, 62839955, -115340769, 270878345, -325011313, -335344404, 107816741, -202918202, 156423494, -95851041, -88831127, -420476139, 129371062, 3563751, 2398506, -665735424, -151443362, -195894793, 43444831, -217780188, -67425586, -390429318, -71731150, 109758846, -113038428, 136242896, -32562632, 255135030], [39810639, 493830323, 368287265, 119784720, -523977578, 10537342, -75533219, -388065010, -59012797, 73614977, -162157282, -103983030, -123119354, -523143291, -198779583, -278422117, -50617177, -684363782, -125299305, 281700969, 304573148, 97722545, 5814510, -427120000, -632404029, -64063936, -235885844, -564867079, -346250534, -246013373, -570595086, 72628111], [-180948570, -349850088, -364619315, -279725969, 550348043, 25329323, -86009920, -321265280, -202344969, -457778275, 76776296, -366175354, 378819317, 47856122, -127484292, 361334383, -118619107, -90030372, -158859432, -36597434, -254738986, 28500589, -221009314, 127809674, -126669094, -145896852, -223780900, -102951244, -351583630, -114041798, 255426139, -65287314], [123056404, -477487504, -333507627, -266504943, -12212926, -25704371, -157665104, 199524269, -427507401, -135554686, -39671503, 14799312, -417242944, 86732589, 59910141, -10688268, -225915715, 295163423, -196963668, -185572490, -294772506, -437545925, -180002511, -42075254, -189027831, 114081703, 183068916, -37165545, -290711641, -108784050, 59877198, 26866544], [-533391654, -811375976, -589419246, -66002898, -112679176, 123771243, -128246084, -499473304, -552811503, -186978355, 24825372, -451816797, -162966117, -28786534, 76385848, 98053634, -95885836, -146119565, -87984473, -196938068, -275444776, -255177230, -65601252, -116712905, -124285966, 118356079, -16875314, 287280291, -503807485, -278883606, 117633589, -163267136]], "b": [-58503855, 156790644, -269139022, -112723760, -215761110, 299724340, -156270385, 107956357, 101581819, 65464020], "a": [-2668063402, -5067151069, -2971550703, -687616050, -2723362445, -1798599481, -5607901096, -1523757457, -3222915410, -2834131240]}, "scale": 1e-09, "label": 3}