{"x": [[[0], [0], [0], [0]], [[0], [0], [0], [0]], [[0], [0], [1], [0]], [[0], [0], [0], [0]]], "head": {"W": [[[[0, 0]], [[0, 0]], [[0, 0]]], [[[0, 0]], [[0, 0]], [[0, 0]]], [[[0, 0]], [[0, 0]], [[0, 0]]]], "b": [0, 0], "a": [[[0, 0, 0, 0], [0, 0, 0, 0], [0, 0, 0, 0], [0, 0, 0, 0]], [[0, 0, 0, 0], [0, 0, 0, 0], [0, 0, 0, 0], [0, 0, 0, 0]]]}, "backbone": [{"W": [[[[-87776989, 100871012], [146116659, 69321141]], [[-101667970, -99725261], [155577585, -226601347]], [[140508667, -124172062], [-113686770, -57293862]]], [[[-142355055, -109533533], [65846696, -68060726]], [[-75530440, 176758960], [-214757219, -112378530]], [[128112808, 121154472], [206972912, 234771118]]], [[[-39507389, 231275305], [223576680, -25841072]], [[11285797, 2791107], [-224107698, 127900049]], [[-230410948, -125115514], [-39260685, 188936189]]]], "b": [-11036441, -157327265], "a": [[[0, 0, 0, 0], [0, 0, 0, 0], [0, 0, 0, 0], [0, 0, 0, 0]], [[0, 0, 0, 0], [0, 0, 0, 0], [0, 0, 0, 0], [0, 0, 0, 0]]]}, {"W": [[[[143533751, 85701212], [34426078, -136503577]], [[153099135, 118641064], [128223106, -34950361]], [[-132125169, 14334098], [13437375, -176747307]]], [[[73151872, 116840139], [-178878754, -209535047]], [[143095270, -165727735], [-55270284, 132572427]], [[-38798004, -40165350], [77391610, 47352180]]], [[[-152362600, -218286708], [-167259604, 171536759]], [[209043130, -177839473], [115134284, 75774625]], [[-4565999, 138433591], [51828250, 56614891]]]], "b": [-157816485, -111834191], "a": [[[0, 0, 0, 0], [0, 0, 0, 0], [0, 0, 0, 0], [0, 0, 0, 0]], [[0, 0, 0, 0], [0, 0, 0, 0], [0, 0, 0, 0], [0, 0, 0, 0]]]}], "tail": {"W": [[60276553, 31664699, -75195961, -53513117, 161906704, -32707453, 99665210, 76544866, -114269711, -150336117, 169685945, 9230703, 121173009, 36633685, 56855395, 132044867, 167622253, -117305651, 22102207, 131920889, 128063247, 109820470, -127936631, -127297640, -106909528, 22208169, 176187113, -111665525, 94200924, -97843803, -166208223, -37572056], [101853594, 164115056, -109785184, 38362518, 152533576, 117141709, 110171303, 125623271, 111814156, 45660779, -120883465, -148449734, -81002720, -20584926, -108355671, 64674407, 54710239, -40028483, 67942485, 57131529, 107929066, 119049147, -59865907, 172715351, -20436749, -6073341, -166855991, -113776341, -103273556, -75611442, 125682846, -57767272], [-132101893, 68014815, 56598514, 114496604, -91477014, 38327843, -64355664, -39717257, -140876591, -80567911, -54139227, 75595960, 32295227, 43666750, 176441744, 172291413, 120570049, 5629197, -122292593, 138152704, -44205382, -14291570, -152292937, -34918457, -114018813, 162441149, -152827173, -137794375, -6002679, -95585890, 63252762, -68045877], [-83029814, 10012209, 127968296, -124348924, 83015457, 113568678, 172922477, -123731472, 42813525, -130713433, 150923148, -68572797, 106481925, 5262896, -13767838, -5640551, 30051067, 83331838, 28351426, 53926602, -159015000, 128788427, 154125229, 146124646, 130677328, -127567619, -65531120, 155868486, -134643480, 160375550, -139034167, -124523014], [86422250, -127012119, -40499657, 128603593, 140022859, 167187557, -35871074, -137401581, 174056247, -37658066, -72732143, 43093532, -123624265, 116191819, 110791728, -140268981, -145199493, -15485004, 74250713, -5119830, -89639500, 4041553, -166158110, -124938875, -117678359, 145580962, 155829683, -60045160, 7928491, 78838512, 21180913, -88521384], [101953909, 108670667, -10245189, -21761656, 160644963, 154525593, -100228533, 172956124, 43747380, -117425837, 96769765, -131976977, 163329050, -113646045, 49997389, 53828537, 42047739, 146622524, -73424108, -74629866, -153189629, -7254869, -83742753, 7083312, -36238953, 58653384, 152925327, 52162945, -56946881, -86743653, -154176325, 148748204], [-33488601, 35683274, 6539166, -112653971, 99557355, 99068955, 8902475, -100460239, -75113587, 2434403, -100999102, -98634012, -26369259, -50902918, 43395281, -46464965, -23434073, -67472406, -161549240, 154171720, 33725873, 158078060, -28489515, -44426247, -166188851, -67106314, 115925208, -173143148, -61830372, 107702836, 101884410, 65273955], [-34992084, -13384759, -33571109, -65167032, 73773250, -60210653, -99309713, 40103629, -127775252, -37726760, 90335295, 66066653, 150496736, -120570019, 1536995, -52202642, -98874167, -99446349, 44536427, 18495202, -90235390, -124602735, -146464467, 173252597, -30130789, -40876999, -65003969, -88417657, -161664426, -103778355, 108050957, 38745180], [-62359504, -66806108, 112927392, 127428517, 170312747, 51566750, 85402802, -14203697, -103349954, -173184901, 107673660, -25693938, 72627977, 8701265, -164989397, -86725734, 49732983, -35779685, -170706615, 61988428, 6779701, -56812599, 71412727, 37321016, -65195777, 158807024, 88685259, 22196546, -33950210, -149736896, 136485294, -45615494], [-114237621, 113340721, 62782422, 43746695, -35051361, -55166744, 29998735, 136798456, 25315151, -83588496, 175607875, 3780738, 139745072, 43083981, 158454940, 101995513, -90125553, 124177709, 1137227, -141901717, -37042841, -159560785, -91588385, -125234962, 120906696, -37138686, -30542940, 84714100, 71942925, -116666943, 65148339, 75098738]], "b": [-25873089, 56422610, -12321653, 13297344, -35909005, -106864840, -40731974, 61054327, -23682615, -48340678], "a": [-25873089, 56422609, -12321652, 13297343, -35909004, -106864839, -40731973, 61054326, -23682614, -48340678]}, "scale": 1e-09, "label": 7}