{"x": [[[0], [0], [0], [0]], [[0], [0], [0], [0]], [[0], [0], [1], [0]], [[0], [0], [0], [0]]], "head": {"W": [[[[0, 0]], [[0, 0]], [[0, 0]]], [[[0, 0]], [[0, 0]], [[0, 0]]], [[[0, 0]], [[0, 0]], [[0, 0]]]], "b": [0, 0], "a": [[[0, 0], [0, 0], [0, 0], [0, 0]], [[0, 1], [0, 0], [0, 0], [0, 0]], [[0, 0], [0, 0], [0, 0], [0, 0]], [[0, 0], [0, 0], [0, 0], [0, 0]]]}, "backbone": [{"W": [[[[-57287063, 118761994], [102379851, 56527711]], [[25273595, 43728147], [247078434, -380019337]], [[146382689, -61924983], [-80299899, -51054239]]], [[[-255091846, 69497004], [161596924, 59964217]], [[-139665455, 276268929], [-342809319, -247664943]], [[2132908, 282474160], [376138091, 291518748]]], [[[-60953941, 278922260], [476307899, -116394781]], [[62239945, -1600144], [-234585971, 71307689]], [[-248799771, -49713757], [-65391958, 128341839]]]], "b": [243277416, -5672750], "a": [[[0, 0, 0, 0], [0, 0, 0, 0], [0, 0, 0, 0], [0, 0, 0, 0]], [[0, 0, 0, 0], [0, 0, 0, 1], [0, 0, 0, 0], [0, 0, 0, 0]]]}, {"W": [[[[254350811, -32147251], [96032970, -236847997]], [[135044932, -251138479], [210470229, 2503526]], [[-407775670, -89653611], [-168904141, -24161207]]], [[[41231420, 204071939], [-272244453, -111759961]], [[426642597, -194306046], [80652632, 317598671]], [[169669643, -180867627], [-155860677, 163367510]]], [[[-1255452, -312235445], [35431109, 295747429]], [[-38494870, -273832262], [284544289, 113873258]], [[-114670575, 156568885], [33928979, 121777609]]]], "b": [190168425, 116498552], "a": [[[0, 0, 0, 0], [0, 0, 0, 0], [0, 0, 2, 0], [0, 0, 0, 0]], [[0, 0, 0, 0], [0, 0, 0, 1], [0, 0, 0, 0], [1, 0, 0, 0]]]}], "tail": {"W": [[-132959083, -118531518, -329652905, -264470249, 52381631, 174369082, -185416073, 221723884, -309685051, -161587596, 86690493, 230051279, 304787397, -137462735, -40989436, -9586620, 191044167, -259335637, 13316003, 108754978, 18873315, -9187574, -169911936, -97520672, -360360324, -95218420, 93003757, -438289106, 33773422, -114596568, -367767483, -127349883], [106872745, 86905733, -339603782, 51971514, 144295692, -301304758, 49795698, -291446745, -9620418, -185699239, -577241540, -838776052, -166491181, -61757270, -482105911, 190414831, -17567525, 137587160, -118141383, 59751287, 103430189, 348410159, -315984458, 51823802, 261007011, 90955131, -367747992, -438776523, 61066009, -573217273, -341378301, -341565967], [84587358, 220118552, 413487881, 118103452, -3370560, -241652027, 79619423, -465010017, 193613395, 53009398, 59962079, 133515373, -24195097, -202420458, -60332928, 151299804, 78452744, -111759484, -360508651, 416148454, -63250035, -235482216, -162123367, -74503154, -96977383, -27278068, -137688920, -465414226, -36199555, -299759388, -374631196, 34876265], [-77235259, 320091993, 119968437, -11287624, -23759862, -230053097, 160826266, -77907294, 11117227, -511097670, 54231532, -299035221, 165441155, 113856860, 83571672, -280504346, -123802386, 156115949, 158333227, 44222981, -295424551, 307684064, 52885246, 216162965, 50792728, -204042718, -42921051, -6843543, -84301509, 201532587, 13304080, 92972621], [-213346958, -365664274, -492345601, 9894520, -108932957, 102926373, 25708463, -175482914, 10193602, -93785472, -4037730, -167840034, -354949415, -49965117, 189700872, -188105285, -69353729, -136126220, -4379386, -54994218, -47385436, -104635663, -251344264, -67728154, -120240860, 94060093, 129152805, 79590507, -213578761, -214418709, 23465378, -123620175], [-12184750, 48274305, -132887647, 13292346, 150172189, 90075783, -116984360, 189687625, -191988751, -295047700, 119021796, -123021059, 166352347, -54668766, -10046153, -210724577, 127549171, 176999077, -30942267, -424224019, -110974289, -87947913, -10822616, -161536306, -8928406, -199327320, -93962044, 175649837, -75698987, 80260463, -104655370, 262389094], [101501450, 276753068, 319926113, 38058411, -242827699, 63386127, -178372070, -256862074, 17775789, 92790641, -146749705, -106838793, -185146570, -462321520, -5201013, -278091103, -39858144, -361230642, -87399490, 278200030, 274072468, 138617441, -31655267, -302557707, -602407038, -82844131, -80450661, -269072980, -170266941, 21004684, -398269713, 113136090], [-102217317, -162162602, -173194245, -151443884, 450861335, 30961456, -38902715, -214685559, -229313806, -410781741, 130688861, -223487914, 275020719, 34903344, -74893638, 113344952, -81554495, -105992414, -44880379, 16973836, -220136166, -9985542, -182823718, 169306606, -91909200, -185445726, -202501297, -93975067, -265133232, -52212276, 257061958, -16238213], [73185094, -316620082, -218109474, -130264208, 57874445, 33832196, -92184849, 183467552, -248304948, -77053890, -24708677, 42975128, -164725825, 119533882, 19673163, 140736163, -165328518, 96933544, -179023430, -170220822, -190114871, -375269175, -31101139, -75018808, -152705893, 245160073, 195286036, 934040, -194341555, -78683928, 67346796, 19979788], [-376272798, -550138652, -336730689, 18256951, -42975571, 140474588, -66494323, -161339521, -458711475, -165701285, 94760977, -248095989, -49266182, 6175739, 154563963, 45050275, -35178445, -52258112, -32214593, -194749519, -215989277, -262660384, 1450352, -116708718, -65747820, 31517200, -12101692, 251009375, -288005620, -210146487, 185198516, 83461449]], "b": [-105413854, 181153148, -211477801, -81423379, -159139544, 252492487, -116746187, 106783144, 78222200, 84572636], "a": [-1017675042, -3310931444, -1005489945, 607582032, -1056437015, -431390881, -3672446966, -182032346, -1998474478, -1116808056]}, "padding": 1, "scale": 1e-09, "label": 3}