{"x": [[[0], [116], [0], [0]], [[0], [0], [0], [0]], [[0], [253], [0], [0]], [[0], [0], [0], [0]]], "head": {"W": [[[[0, 0]], [[0, 0]], [[0, 0]]], [[[0, 0]], [[0, 0]], [[0, 0]]], [[[0, 0]], [[0, 0]], [[0, 0]]]], "b": [0, 0], "a": [[[8, -5], [-82, -68], [14, 3], [0, 0]], [[2, 6], [-71, 32], [28, 3], [0, 0]], [[19, -11], [-179, -149], [31, 7], [0, 0]], [[18, 17], [-189, 35], [31, 0], [0, 0]]]}, "backbone": [{"W": [[[[-1131871790432256, 431753097379840], [2156774199132160, 202117520293888]], [[-2593498284949504, -266108036710400], [1258295360749568, 741889967915008]], [[-812945504206848, 1363773583523840], [2697544136130560, -634673961107456]]], [[[-718386564694016, -1354513499815936], [2599955231408128, -2114510110326784]], [[10632665497600, 2545532895494144], [-1052842043375616, -235947417403392]], [[323742253187072, 166631678410752], [-1564040794996736, 1810638087127040]]], [[[570393131745280, -2184684775669760], [-1518081155268608, -10008901189632]], [[956035963551744, 1722796342247424], [2534095666020352, 2030656242581504]], [[-500987970191360, -1058443217600512], [270113227931648, 2030102997106688]]]], "b": [1232860430204928, 1678339672637440], "a": [[[3, 10], [5, 3], [-1, 9], [1, -8]], [[-6, 9], [-2, -5], [10, 7], [-1, -10]], [[16, 17], [8, 5], [-2, 13], [0, -11]], [[-12, 10], [-1, -1], [2, 0], [-4, -2]]]}, {"W": [[[[1756304737566720, -177871909814272], [827220767539200, -1497395250593792]], [[-162425445810176, 1857997751975936], [-537689371705344, -2001294369751040]], [[-622785088978944, -1838938029293568], [-120701088432128, 2256855258628096]]], [[[1024200584200192, 665340698689536], [1559745559265280, -475308192956416]], [[2394195427852288, -173848934744064], [-334031786868736, 1196059539800064]], [[363970997256192, -1299120501293056], [2433135748841472, 770494584324096]]], [[[-1967069922852864, -1693463728881664], [-428136734916608, -1462227253067776]], [[270176696139776, 725946847985664], [154258884263936, 240130128347136]], [[274390025502720, 1905676855017472], [-643249601511424, 923161612779520]]]], "b": [-1315929392676864, 245153042268160], "a": [[[1, 1], [4, 1], [1, 2], [0, -3]], [[0, 3], [0, -3], [1, -3], [2, -2]], [[4, 0], [8, 0], [0, 2], [3, -2]], [[-2, 0], [5, 0], [1, -3], [1, -1]]]}], "tail": {"W": [[-42622022320128, -1600205090717696, -606919949549568, -645807053209600, 437249447559168, 1021768760295424, -1043618332672000, 483363571892224, -2194619974549504, -1275655618560000, 231490617081856, -672444843032576, 1907880978546688, -1476419838279680, 508715253891072, 338823326203904, 2223722001858560, -3044196852170752, 20737771438080, 584037907300352, -355896861392896, 635226803929088, -184525485244416, -2018302306025472, -2410098081136640, 401144241192960, 1382433068941312, -2940442253459456, 13370043400192, -966350327513088, -4139578332020736, 53915542355968], [173639974518784, -260349492199424, -2483830053142528, -310945901445120, 2236838429327360, -2791970602745856, 907883474583552, -1320531584352256, -2196459428511744, -3078198497640448, -2876317854859264, -4557668970659840, -2278016562495488, -882633093414912, -3546814057807872, 495634494783488, -230189342654464, 1271521175666688, -923659023679488, -27056616243200, 1206326927556608, -1354471355449344, -4604353117683712, -371497155690496, 977817151995904, -3977107235405824, -5915929829441536, -2988568704188416, -1287912381480960, -2955142584336384, -1460028229812224, -3006509856325632], [-144353934704640, 1905625718063104, 2403562751524864, 1953568156286976, -1655347236306944, -951705696993280, -33315117596672, -3628282608091136, 1744645914624000, -112246940237824, -995084799574016, -1553678381088768, -2024975074590720, -374907628158976, 173757884792832, 1051256059592704, 825073820762112, 445501254139904, -2831666837979136, 2211164457009152, 142068408123392, -257962044030976, -730201818398720, -992667806728192, -1059780026171392, -80525033209856, -502199989829632, -2296070457524224, -370843414691840, -3253113993560064, -2534336452624384, -1332640976207872], [-1450031424995328, 1013979233124352, 370162830147584, -1599976786362368, 418100201652224, -554807064526848, 1430778160349184, -1426881014398976, 585377266008064, -4243597608091648, 2388435071401984, -1020965802737664, -111908845780992, -241165987217408, -2716031554420736, -2394319981903872, -382683901329408, 707255485857792, 76982834429952, 970395851161600, -2465589863907328, 939844473716736, 332456842493952, 685469599793152, 840283440807936, -2923269095161856, -511210327900160, -88496249241600, -909637297635328, -124844205146112, -665876227424256, -2236404369195008], [-241793538981888, -2081232972152832, -441250310258688, 1575689148956672, 1046083979444224, 1476101339611136, 132959000592384, -657115567882240, -208175303229440, -1026867758891008, -143987990069248, -1646834745344000, -1519982483603456, 793386223140864, 970718175035392, -1416757508046848, -1500830821777408, -1470791015202816, -320680780365824, -963557726355456, -1315003021918208, -2374133367177216, -2544051131777024, -468030538645504, -1293627640774656, 1300295443283968, 619571916570624, -608681288794112, -974510161395712, -2675939645325312, 901119706398720, -2862032256761856], [368305256792064, -139060152631296, -450936971460608, -1961504584761344, 1324334241021952, 417154604204032, -927905337049088, 1769655106535424, -1351032026169344, -2777210947633152, 1023017656254464, -263454736777216, 2208706125103104, -2439758319976448, 282783331123200, 674367981748224, -549269744386048, 2164303276802048, -1630445552795648, -1213692930686976, -1140196645011456, -796187816886272, -356265054175232, -2255403022811136, -430806828843008, -1193907224313856, 97474198896640, 822358730342400, -1012809324298240, -279061691629568, -1365853824090112, 2656991860228096], [1654397511663616, 1983078071271424, 125717761228800, -310869430894592, -1068771808641024, 1037354122870784, -1026809441288192, -1361778168561664, -592936274231296, 2022421582315520, -3135311899000832, -870026089332736, -4244324531306496, -1070302092066816, 1383753637167104, -2536113226907648, 1966856382447616, -2887682069889024, -1386189017841664, 865162777067520, 1986375263977472, 1928199931953152, -1998842346078208, -2355200346030080, -4735932662022144, -75267355705344, -2140766050713600, -2899936416890880, -238085606473728, -387950302986240, -2561982888673280, -313383328940032], [-1314358776823808, -1938205595140096, -1998891201331200, -289567533957120, 2162325041709056, 71337703899136, -717229205225472, -1297861807439872, -2342522676314112, -2106939962032128, 1603760249896960, -2428107952750592, 3010064478633984, -892758277488640, 86955488444416, 445708721192960, -715761064607744, -2439662220083200, -1952806202245120, -169263738388480, -973161877209088, 723946399858688, -2539577654902784, 988237883506688, -42224536518656, -2920472266145792, -986850743287808, -2175604543717376, -2443341128007680, -680105722511360, 1653291691802624, -1937549136232448], [-1108100689952768, -1286775691542528, -826861466681344, -693347710664704, -222291115900928, 207420781494272, 753155734241280, 1160440302272512, -2070717684252672, -582826860740608, -23771178074112, 1426396219965440, -1319283762135040, 1228040940027904, -1054385413029888, 743766667296768, -1613384197865472, -1068400495296512, -493612471156736, -1300007412039680, -1938239954878464, -2652181765292032, 31521597554688, -618029620658176, -1823765923102720, 857851803205632, 479203292086272, -1045636229103616, -2175842780184576, -608007650017280, 356832593838080, -819752624717824], [-3467270189744128, -1841866794336256, -313183512297472, 420961757167616, -445450452729856, 455607010197504, -1000544105660416, 706194494717952, -3600718313291776, -700864977174528, 1446962536644608, -884193777156096, -19246534885376, 913488675340288, 1051187071680512, 267407566307328, -273229327368192, -2368804654940160, -978673461100544, -2632850922799104, -2289156365484032, -2843115073306624, -1545271251042304, 1196917325299712, -757185621524480, 256781481672704, 221272537563136, -441490258001920, -2203488545144832, -2783804259303424, 1498936070111232, -2758734266761216]], "b": [-1559094469066752, 18114578621661184, -4648166615941120, -219743898304512, -3272133450924032, 796533293318144, -3638159959130112, -3352218753302528, -2684377377013760, -3100498236276736], "a": [-41341929262153728, -66683353000050688, -6539932206104576, -53659083718262784, -36002799581921280, -43688076622430208, 1665573419220992, -78702406661046272, -22167172323213312, -49507576919883776]}, "padding": 1, "scale": 1e-16, "label": 6}