{"x": [0, 0, 0, 0, 0, 0, 0, 0, 0, 0, 0, 0, 0, 0, 0, 0, 0, 0, 0, 0, 0, 0, 0, 0, 0, 0, 0, 0, 0, 0, 0, 0, 0, 0, 0, 0, 0, 0, 0, 0, 0, 0, 0, 0, 0, 0, 0, 0, 0, 0, 0, 0, 0, 0, 0, 0, 0, 0, 0, 0, 0, 0, 0, 0, 0, 0, 0, 0, 0, 0, 0, 0, 0, 0, 0, 0, 0, 0, 0, 0, 0, 0, 0, 0, 0, 0, 0, 0, 0, 0, 0, 0, 0, 0, 0, 0, 0, 0, 0, 0, 0, 0, 0, 0, 0, 0, 0, 0, 0, 0, 0, 0, 0, 0, 0, 0, 0, 0, 0, 0, 0, 0, 0, 0, 0, 0, 0, 0, 0, 0, 0, 0, 0, 0, 0, 0, 0, 0, 0, 0, 0, 0, 0, 0, 0, 0, 0, 0, 0, 0, 0, 0, 0, 0, 0, 0, 0, 0, 0, 0, 0, 0, 0, 0, 0, 0, 0, 0, 0, 0, 0, 0, 0, 0, 0, 0, 0, 0, 0, 0, 0, 0, 0, 0, 0, 0, 0, 0, 0, 0, 0, 0, 0, 0, 0, 0, 0, 0, 0, 0, 0, 0, 0, 1, 1, 1, 0, 0, 0, 0, 0, 0, 0, 0, 0, 0, 0, 0, 0, 0, 0, 0, 0, 0, 0, 0, 0, 0, 0, 0, 2, 2, 2, 2, 2, 2, 2, 2, 2, 2, 2, 2, 2, 2, 1, 0, 0, 0, 0, 0, 0, 0, 0, 0, 0, 0, 0, 0, 0, 1, 0, 1, 1, 2, 2, 2, 2, 2, 2, 2, 2, 2, 2, 1, 0, 0, 0, 0, 0, 0, 0, 0, 0, 0, 0, 0, 0, 0, 0, 0, 0, 0, 0, 0, 0, 0, 0, 0, 0, 2, 2, 0, 0, 0, 0, 0, 0, 0, 0, 0, 0, 0, 0, 0, 0, 0, 0, 0, 0, 0, 0, 0, 0, 0, 0, 0, 0, 2, 2, 0, 0, 0, 0, 0, 0, 0, 0, 0, 0, 0, 0, 0, 0, 0, 0, 0, 0, 0, 0, 0, 0, 0, 0, 0, 2, 2, 0, 0, 0, 0, 0, 0, 0, 0, 0, 0, 0, 0, 0, 0, 0, 0, 0, 0, 0, 0, 0, 0, 0, 0, 0, 1, 2, 2, 0, 0, 0, 0, 0, 0, 0, 0, 0, 0, 0, 0, 0, 0, 0, 0, 0, 0, 0, 0, 0, 0, 0, 0, 0, 2, 2, 0, 0, 0, 0, 0, 0, 0, 0, 0, 0, 0, 0, 0, 0, 0, 0, 0, 0, 0, 0, 0, 0, 0, 0, 0, 1, 2, 1, 0, 0, 0, 0, 0, 0, 0, 0, 0, 0, 0, 0, 0, 0, 0, 0, 0, 0, 0, 0, 0, 0, 0, 0, 0, 2, 2, 0, 0, 0, 0, 0, 0, 0, 0, 0, 0, 0, 0, 0, 0, 0, 0, 0, 0, 0, 0, 0, 0, 0, 0, 0, 1, 2, 1, 0, 0, 0, 0, 0, 0, 0, 0, 0, 0, 0, 0, 0, 0, 0, 0, 0, 0, 0, 0, 0, 0, 0, 0, 0, 2, 2, 0, 0, 0, 0, 0, 0, 0, 0, 0, 0, 0, 0, 0, 0, 0, 0, 0, 0, 0, 0, 0, 0, 0, 0, 0, 2, 2, 1, 0, 0, 0, 0, 0, 0, 0, 0, 0, 0, 0, 0, 0, 0, 0, 0, 0, 0, 0, 0, 0, 0, 0, 0, 2, 2, 2, 0, 0, 0, 0, 0, 0, 0, 0, 0, 0, 0, 0, 0, 0, 0, 0, 0, 0, 0, 0, 0, 0, 0, 0, 0, 2, 2, 0, 0, 0, 0, 0, 0, 0, 0, 0, 0, 0, 0, 0, 0, 0, 0, 0, 0, 0, 0, 0, 0, 0, 0, 0, 2, 2, 1, 0, 0, 0, 0, 0, 0, 0, 0, 0, 0, 0, 0, 0, 0, 0, 0, 0, 0, 0, 0, 0, 0, 0, 0, 1, 2, 2, 0, 0, 0, 0, 0, 0, 0, 0, 0, 0, 0, 0, 0, 0, 0, 0, 0, 0, 0, 0, 0, 0, 0, 0, 0, 2, 2, 2, 0, 0, 0, 0, 0, 0, 0, 0, 0, 0, 0, 0, 0, 0, 0, 0, 0, 0, 0, 0, 0, 0, 0, 0, 1, 2, 2, 2, 0, 0, 0, 0, 0, 0, 0, 0, 0, 0, 0, 0, 0, 0, 0, 0, 0, 0, 0, 0, 0, 0, 0, 0, 1, 2, 2, 0, 0, 0, 0, 0, 0, 0, 0, 0, 0, 0, 0, 0, 0, 0, 0, 0, 0, 0, 0, 0, 0, 0, 0, 0, 0, 0, 0, 0, 0, 0, 0, 0, 0, 0, 0, 0, 0, 0, 0, 0, 0, 0], "head": {"W": [[[[141754150, -115506344, -76319143], [297317803, -164105624, 201282576], [64322554, 264860332, 28401384]]], [[[-94127990, 199936450, 125686750], [144616291, 963325, 55192731], [35314113, 112232037, 8757927]]], [[[431965441, 151205525, -253393501], [-66469863, -87889224, -360419780], [11883672, 1129325, 96340567]]], [[[235759020, -187326580, 298348099], [129429758, 408678293, 265285701], [-511580229, -541209638, -349267393]]]], "b": [266024649, 24124544, 34409106, -127610475], "a": [[-9, -14, -3, -1, -16, -11, -22, 8, -5, -3]]}, "backbone": [{"W": [[[[178692520, 12188470, 182852969], [-10056281, -57775572, 139884263], [-120262474, 53572364, 32738492]], [[-17120218, -127338707, -71432561], [115923867, 27537387, 199258372], [192548156, 67414045, -67781165]], [[24208082, 121002018, -134219736], [-61729647, 90614356, 124709912], [-311734110, -121123329, -67512162]], [[124529585, -205844507, -230335549], [91205411, -62971041, -13849771], [-117236644, -80315664, -116563983]]], [[[-117387637, 26384015, -105508812], [-194180280, -214822352, -99780850], [-301976442, -201851606, -124114223]], [[-249285594, -224135458, 157300904], [-203460097, 14390828, 118954413], [-391996711, -92186183, 133784398]], [[-179854810, -53805232, 63958585], [-26650898, -85157201, -110565409], [53061999, -123170875, -29317155]], [[182836324, 50781831, 77737451], [228620037, 98495848, 231091917], [41230738, 242216453, 408176541]]], [[[154930294, -100183189, -6623837], [91757067, 97448133, 56979034], [-86002618, -106061742, -117340475]], [[83633088, 267159790, -101746112], [168956652, -48794255, -256626248], [39747670, 70258431, -5303236]], [[21208195, 172541827, 209996715], [314217985, 355959386, 311854392], [288803995, 264614165, -25986666]], [[-406732529, -227449462, -21056376], [-293316752, -101070955, -11968524], [-231991202, -87976933, -23526296]]], [[[147366866, 158533514, 9177628], [124563955, -32318376, 25427965], [-305652171, -230993345, -162324592]], [[-104408942, 74256286, -100665957], [-72747953, 74594907, 60362618], [101508968, -147838846, -4912759]], [[-178562686, -139469117, -242849171], [-95323913, -19054187, 45507573], [78575186, 78060374, 121396601]], [[329593867, 291793972, 201731458], [104716599, 351357073, 179572716], [207824901, 145912662, 208632559]]]], "b": [-243471220, 131828383, -158486068, -87457731], "a": [[-9, -14, -3, -1, -16, -11, -22, 8, -5, -3]]}, {"W": [[[[-5659387, -90119243, 59635282], [-64154267, -78281268, 9439602], [120649651, -117237292, 78267708]], [[107073560, 163032874, -116655156], [40364981, -123237811, 142291710], [-64651057, 100392118, 4961908]], [[-12980446, -5317971, 28332412], [78566015, 26729986, 50842479], [-149920791, 121422902, 145310655]], [[137767628, 123203769, -120271906], [-61783336, 146954224, -126943097], [151203528, -131082684, -117401421]]], [[[81479669, -119748175, -38183451], [121248648, 132014826, 157625958], [-33819571, -129543468, 164101824]], [[-35504356, -68572521, 40628970], [-116554081, 109546706, 104455456], [-132246882, -136895403, -14599398]], [[70004240, -4827023, -84512934], [3810406, -156655371, -117793500], [-110948227, 137255058, 146917656]], [[-56611121, 7475063, 74329659], [19969568, -83458766, 96123055], [102455691, -9659246, -20517096]]], [[[151457533, 145688131, -94496369], [163064614, 41245416, -110710144], [91235414, -124429092, 153988108]], [[-107146524, 47137991, 50750032], [39642990, 138237044, -69224916], [-70361719, -144428581, -6839946]], [[-78953430, 6678209, -34166411], [55298939, 144179389, 49179688], [-53690039, -81782699, -145358846]], [[140241161, -31573355, 33642516], [6165192, -106211185, 93863562], [93403116, 8393332, -94714820]]], [[[-70817769, 2295181, -95222875], [-92993043, -24861172, -47991738], [40913463, -43807589, -22093847]], [[-63613594, -152310103, 145354494], [31797051, 149037436, -26860178], [-41885480, -156684369, -63268445]], [[109295323, -163240939, -58294237], [101543203, 96057549, 61540887], [-32990858, -12619272, -31651139]], [[-61440073, 69554090, -56767151], [-93630098, 37810072, -120467663], [-35569131, 85168943, 62288240]]]], "b": [141889706, -113674507, 1449093, -49217127], "a": [[-9, -14, -3, -1, -16, -11, -22, 8, -5, -3]]}], "tail": {"W": [[-9987799, -10045599, 4009847, 1379285, -9604584, -13076619, -15294504, 16939584, -3592826, -4722510, -6243987, -8146905, -17036455, -10739069, 12328442, 5877823, -4660340, -5624475, 12006113, 12333422, 16711667, 4710314, 8081825, -1923800, -10928949, -17983334, 10041641, -2595481, 7336535, 296951, -17211318, -9305498, 4478427, -4170636, -17864965, 5088501, -1323321, -7038344, 5545513, 1200641, -8749655, 12973113, 5277792, -1730718, -6320946, -17220415, 10551517, -6507506, -12862428, 10560807, 5619380, 3781785, -4113108, -6117551, 2481814, 13818732, 2557216, -9245967, 17592216, 240117, 13949531, 3729683, 14244098, 6334148, -13904941, 4175387, -8030536, -26575839, -16977163, -37039772, -27775522, -38387351, -8946158, -26333239, -19395590, -6099983, -3855090, -18358026, 3748254, 7411196, -14633093, 15327382, -11735839, -6983050, -14708673, 15518724, 3247749, 14564609, -469073, 8435945, -12258674, -28455550, -15299278, -21217637, -24241541, -33712704, -18830113, -36009949, -44693135, -64677700, -33290166, -56301154, -43234363, -43304712, -62549129, -27784966, -42665217, -3489828, -3948785, 7973813, -10558702, 10735651, -8836299, -16638130, 5458084, 6872470, 10961041, -15708679, -3760220, -11241119, -43187875, -46242859, -34981508, -45504451, -24736553, -53915076, -30810973, -43793544, -66018835, -49652115, -86146243, -94963059, -90246499, -90906307, -50353546, -51574714, -3657421, 12033039, 14059484, 14592727, -17101910, 4800897, 4815289, -18530361, -4962795, -36576584, -23143545, -30208163, -27065258, -49359854, -59255004, -8327415, -13156628, 8505645, -1115336, -16237037, -39218958, -51221855, -48406899, -53862579, -45650683, -73141031, -70389315, -45005638, -59789702, -28977649, -18431248, -8768010, -3805763, -14274913, -13282084, -25382021, -9502449, -34976233, -48277818, -53973347, -59906330, -63103914, -23975438, -31341821, -35234697, -9985437, -13283850, -10879299, -34558278, -14961744, 4258120, -11039955, -23097720, -19188279, -18959517, -39029501, -63221194, -37332244, -11687755, 3145709, 6559934, 731279, -9903520, -23848586, -10897920, -29742533, -69319293, -43035287, -53511802, -60594864, -36785774, -43354172, -66326909, -22689877, -25103161, 30935088, 23878232, 54857939, 33470444, 12909889, 19777451, 4708173, 11372688, -18063646, -25208263, -43398436, -38947172, -18727439, -9428839, -11261296, -12311398, -22118673, -14289986, -32065574, -58464002, -53897645, -61210126, -27890237, -31129342, -82292892, -63676104, -34624878, 21827696, 53559031, 84554568, 62757507, 76115541, 70132419, 50779734, 19404646, 1601699, 36685199, -2963778, -37509430, -39166600, 263361, 8020897, 12078104, -7838908, 6145610, -5498602, -23401367, -30358626, -26584316, -34489423, -47833752, -38619023, -28820138, 6119142, 17949566, 65758482, 53363763, 68452053, 57804856, 92996374, 115807340, 49575388, 37737753, -4164780, 20097904, 13654328, -8604594, -16615320, -174543, 6627977, 4891076, 14994545, 1104414, 1004273, -15147575, -7085230, -43214481, -19506259, -31160302, -41705828, 5692934, 10926278, 39306156, 26518429, -17165860, 33433087, 65943532, 81763208, 67708567, 70819281, 36973953, -14805954, 20328932, 32939866, 3607798, 573999, 5257094, 11005260, 4371758, -19038962, 7919060, -21252872, -11809048, -26975513, -3898754, -37450053, -56110378, -46822038, 2737725, -2159457, 23875747, -38846496, -75548068, -78480549, 5589832, 61559744, 47940798, 89432895, 47191657, 62742621, 41720815, 34738339, 9938314, 11828619, -5455717, -16823189, 1856549, -7805850, -1653127, -7116044, -21499431, 20742804, -14504396, -6816199, -9706871, -17970582, 18284019, 4441055, -36743928, -94782695, -116819829, -115894757, -80399014, -3106817, 34039017, 32320134, 33138610, 37217811, 66340283, 94357803, 23916615, 21684561, 8102058, -11590295, -15075317, -20473862, 8168771, 8500184, -21360496, 37648745, 24713822, 33734545, 7357319, 42476170, 8265132, 1804695, -63674845, -117980294, -129901126, -137497455, -92079923, -45821942, -43066360, 10913246, 31559810, 65308139, 66449963, 97274430, 50519850, 25807774, -9219861, 1150252, -13483988, 5184456, 42661287, 7563070, 4349499, 38964570, 36204658, 44785988, 24386266, 30114913, 2828380, -16589265, -94094910, -136453584, -148975953, -198351815, -107295245, -45771580, -40087454, -6317344, 8658594, 52195307, 87248601, 94411701, 41138526, 19511022, 13902492, 13599741, 4584110, -17881325, 24753034, -5996972, 28222574, 18656999, 18221738, 26507441, 45643140, 3905647, 12689352, -35158880, -93577601, -184336111, -174669877, -199429736, -123250984, -63112698, -71167663, -16744753, -17902847, -4375018, 69875814, 76162189, 54654911, 14908744, -2159360, -13883967, -19041343, -26518874, 5874215, 14662156, 54386437, -17170856, 20342277, 42874668, 47633581, 47802154, -18181499, -51695760, -125652537, -174971014, -199602664, -150183618, -98787963, -72283380, -73584944, -33484753, -28511446, 8731282, 83345391, 57054244, 23111496, 23609810, -12303640, 6284711, -8797863, -10406175, 23568498, 10694760, 79684906, 28634703, 30180143, 51398776, 36971308, 34622598, 1629929, -57180811, -142278150, -178089947, -170894444, -140709817, -95484465, -82011677, -61762255, -26579678, -33607222, 30577742, 49724072, 56075886, 13049468, 9615071, 8501749, 7241451, -21027610, -25255883, -2987352, -1926321, 27003150, 15402474, 20274282, 20094298, 17762946, -8585622, -17050304, -74995384, -135267809, -172252104, -146392331, -136335447, -106818937, -93544304, -56642156, -10319266, -15505631, 23359476, 43325063, 17587792, 32112207, 3411369, -19540794, 2258059, -3352889, -27321361, -13283969, -21473121, -215805, -2467653, 11632271, -2960423, 4602180, -24417344, -26148619, -32625880, -84191538, -105272867, -105546504, -91282159, -94133452, -39437987, -27851587, -49006481, -3202846, 27007703, 25807016, 21266947, 18334560, -9215561, -13586373, -10858629, -1463792, -15296617, -18499197, -45964576, -19337133, -14171269, -17629677, 29561905, 6181902, 25207171, 10631780, 5272072, 5253296, -32945771, -26881026, -45397244, -15142319, -38242623, -37646350, -28389089, -4266435, -13911242, -9113337, 4658469, -1486014, -16960021, 12757219, 1199801, -26970025, 2874675, -10851609, -10761929, 10405932, -543401, -8042282, 16706126, 30315949, 37993245, 47692563, 51044144, 24630357, 12656982, -3083166, -39358750, -36376771, -49349181, -50528660, -24561977, -37252516, -24570396, 2701541, -3057006, -1501752, 15516980, -11141565, 598113, 14232856, -15412962, -12405921, 6596793, 6692708, 11598857, 13144615, 28438620, 8707708, 10024075, 14059738, 68053372, 69603167, 44486199, -871079, -3159340, -48360799, -23005622, -43803610, -44080395, -49256988, -19899618, -21317642, 1679668, -13080649, 5720813, 11200116, -2839162, 7424383, 1093259, 8993763, -21497836, -21889180, -16111447, 14003238, -9642485, -7658639, 8752342, 48172425, 29876672, 25464725, 18359687, 34321435, 3406934, -29100303, -22137349, -44445705, -59775565, -61797246, -27756035, -17314179, -7394786, 2169710, 6557679, -8095713, -2996183, -14815708, 11695067, 15544206, 5999126, -11316127, -28991003, -24950158, -18675499, -45396678, -13210547, -7989164, 5549392, 30463971, 11155738, -4018723, -13990141, -24648301, -35119694, -50673023, -61307296, -34040473, -34640715, -19313840, 7860568, 1177115, 3485598, -4938574, -14169400, 2676911, -12639992, -1340715, -20818863, 2386171, -27131382, -7623937, -17210320, -22872027, -32179095, -43530907, -45935441, -43751877, -35056598, -46993874, -17033607, -39800119, -19098474, -15883390, -17936019, -40999226, -37039794, 4863670, 2111689, 6711634, -20319937, 1201853, -16656317, -2871268, -1305096, -14543975, -20137342, -6426556, 7557441, 502736, -25534036, -26390202, -41524928, -43467637, -33484820, -14874466, -36367361, -29308315, -12708529, -16520469, -12062907, -4217819, -3615400, -11731869, -24970226, -19057184, -10773490, 13763481, 9610184, 5226362, -13598735, -15195204, 12861311, -3357270, -19422006, -4327692, -6450690, -4645216, 1727644, -912954, -22368852, -10061837, -21596629, -1629179, -3987589, -2751013, -1913339, -8186778, -33170488, -5238696, -23412438, -3154010, -7999271, 13554383, -15554268, -19622084, -6552364, 2877578, 11689776, 12858792, 8251738, 123469, -10634254, -9162473, -15093154, -2048647, -17624874, 570905, 5594448, 9592834, -22281172, 11295757, -13095265, -2167251, 17347492, 10434915, -7080371, 8010697, -20340944, 10175422, 12930248, -5782926, -2299147, -9581011, -17176768, -13170525, -1424342, -13462613, -19561887, -2882416, -16053176, -13827059, -4635655, -14062669, 11762366, -9188190, -11892460, -5589352, -14719138, 9661589, 16850935, -9082096, -2275034, 19554753, -10830821, 7352267, -13388763, -16804075, -174052, -10380529, 6669998, -9957764, -5820076, -13990095, 8052870, 19631103, -4571232, -13156206, -19158693, 16017051, 7762575, 8400903, 1165064, 12053139, 13499189, 20005256, 23793114, 14992101, 31684473, 31575549, 22529056, 15331339, 17934136, 27199080, 23798019, 5450787, 6234768, 15117573, 11487187, 18907361, 6746656, 2464914, 4841655, -13617949, -8445959, 167362, -14330724, -17599862, 13303410, 5652371, -17205512, -5248644, 7988373, 5458584, 6259688, -19224549, 5053772, -3207391, 10236709, 10070732, 20872638, 25692273, 15827782, -179067, 6582717, 2795568, -3269263, -7877304, 13567538, 11079763, 15597641, -7435172, 9890344, -7820804, -7244626, -7718129, -5187333, -10310370, -3824260, -25950188, -2367129, -34802824, -23043206, -30928101, 17875265, 24137443, -8389580, 2689678, 16858539, 5776939, 4415801, -20223271, 3240861, 8460146, -13223171, -1882938, 15309829, 2913011, 5517324, 1368209, -11853709, -15400398, 14324107, -8308081, 10070194, 12762485, -34224764, -31917319, -32771844, -28119691, -12524102, -3409793, -20733122, 3269224, 11826172, -11807650, 14939902, -15472119, -13617422, -17452879, -5633451, -5330917, -9485085, -5242271, 5571845, 474294, 154698, 4949661, 7814882, 747948, 10302983, -10680851, -17335478, -12528429, -45162182, -29754249, -8081180, -35617542, -22336524, -25266802, -7408395, 40088404, 54922860, 65350123, 22188496, 45746595, 11915944, 20612843, -9602457, -24246160, -10646914, -3136994, -16691472, -6187986, 449009, 11222390, -5935988, -22380194, -17170502, -11999364, -25813038, -15396553, -41359384, -21928875, -58863327, -59379846, -36342353, -34538571, -16198095, 19581936, 50110433, 80680795, 29035488, 52236132, 37455641, 13821948, -19780060, -19792939, -25037637, -242298, -25510641, -11422597, -7681934, -9666875, -18907107, -18183861, -14994695, -14429855, -25222948, -50380036, -41024104, -38476203, -45155957, -60681675, -63730262, -5199405, -10300216, 10205252, 52136708, 66283852, 18906012, 38675155, 45951534, 9041849, 6739288, -9874917, -883499, -16781755, -20670403, -11412466, -9742568, 6190281, 13325840, 9906122, 1214784, -15834786, -33554442, -37776481, -27046876, -66144846, -88824719, -71276680, -41274484, -22160826, -7318264, 4453469, 32384250, 23534587, 26890822, 28365914, 26507407, 34001637, -11402084, -2183512, -30524794, -19119600, -15019494, -4803090, 218189, -3656189, -9907667, -8999885, -32657698, -36074024, -18404478, -53787034, -80785230, -81788689, -76309316, -67319937, -59628952, -19311799, -21247288, -7275245, 25799537, 19360082, 23955494, 4455277, 35829216, 6966539, -2430069, -12730667, -19613739, -4320883, -9009952, 8727093, 5145535, 19110318, -5996093, -18801626, -13823582, -26844481, -32719981, -48465557, -55156801, -101642847, -81656493, -99281833, -50950985, -27424337, -5916248, -3772009, -6223170, 9360889, -3888012, 23190290, 16695481, 15133745, -8550018, -6875661, -14005544, -21971766, -18111063, -7932985, 9839783, -13188457, -15360802, -32851059, -26794182, -43758467, -69079198, -67855358, -114309773, -91007926, -94840646, -76803312, -51079489, -65000981, -49651884, -14052566, 5952833, -31834397, 32306079, -7213618, 22433328, 19045457, -10242221, -5518470, -22090450, 2001469, 4681753, -24724886, -572670, -2068667, -19508183, -20816216, -46863988, -10596835, -69491409, -85651189, -88296145, -63204847, -68503864, -60751673, -62049054, -99873722, -99070430, -58669798, -24252983, -14493180, 22829104, -2756533, 19841231, 8156318, -3235063, -2240887, 3477219, -3665682, -13991529, 76513, -11706832, 10916752, 6838877, -16352238, -21435345, -4405496, -63474938, -89826934, -67081548, -50550468, -71054116, -71164191, -72343953, -52246116, -73425151, -37525080, -21348728, -12207283, 15020888, 27422439, -1237471, -3194166, -14059057, -7865177, -17440418, -3207928, 3156983, 8704666, 8055449, 60040, -23593187, -32628875, -55851188, -9406291, -66658102, -67198306, -50431415, -46791926, -70349202, -64565569, -60484134, -37028167, -53621184, -58901139, -56527730, -12893106, -1110024, -13185409, -14864165, 6432562, -7849278, -3568868, -33214066, -9379865, -5494607, -9770176, 14595746, -9805310, -25709081, -18630384, -34074586, -41607093, -14930088, -1651350, -36031999, -50996821, -47713354, -42964824, -35118010, -32711163, -43726251, -83029412, -46418272, -11318635, -14715573, -24503553, 3432625, 13281479, 8164830, -11594567, -17189084, -2096741, -7158651, -3018097, 14883419, -3258732, 10688143, -4680634, -16395444, -17152926, -27896231, 20654500, 27929790, -1789876, -24101647, -43218188, -60416423, -56692306, -35275467, -56821242, -30885881, -19398192, 4341987, -13084284, -10252589, 18280352, 11115978, -25569629, -16262453, -4517587, 8660708, 6175974, -8688728, -12807999, 5834016, 5047571, -4731681, -718763, -23509307, -24613081, 21497162, 27205825, -48960268, -68501718, -72604463, -59728824, -69089197, 1629956, -6401331, 14447609, 22000, -16578522, 1551940, 4029547, -9683733, -14058222, -1830620, -1478694, -7035254, 11344034, 17756853, -12056550, -9390567, -21344755, -351238, -27236426, -35174809, -19355668, -6248466, 33858534, 31445961, -49171541, -53915851, -32553364, -13545504, 5360373, 2020876, -8326457, -30136338, -13687277, -21660646, 2841057, -8473673, -10944668, 1136029, 7169852, -4967833, -4980595, -5395085, -2175559, -16187210, -5938607, -25386857, -10904305, -32705691, -35197940, 22258755, 35406921, 52007109, 27224271, -2099109, -36918122, -26732145, -8886896, -6883928, -30765951, -56514539, -5875962, -20493081, 2054778, -876099, -7598104, -22654412, -2021306, 15564803, -6198026, -1280294, 10476444, -16967777, -15160120, 16444661, 11158826, -19369215, -18890919, 5844097, 20792561, 39034002, 28444422, -421914, -18218406, -4398194, -17959265, -13604281, -34879800, -53636011, -31531353, -6305861, -31519573, -42039491, -1673121, -9695442, -7983923, 10110996, -6923497, 3280387, -14139046, -13015096, -43771647, -1942092, -3872961, 3416631, 27350459, 1119139, 28259596, 31668380, 39435685, 7491795, 6865340, -19021271, -7325144, -15110269, -36207423, -34665029, -42236473, -35029329, -10891799, -24843927, 1417077, 15883405, -3215341, -11441238, 14305021, -8532274, -11538741, -31055637, -25979077, -20948157, 7146416, 7175618, -401846, 5878758, 37809104, 27582984, 26725179, 30762138, -7646954, -11155470, -10076910, -11870760, -37224703, -54290108, -29650010, -16039945, -32159492, -16479760, -6307174, 8416501, -779619, -13618501, 8933705, -8215379, 18787224, -7797200, -10877224, -21780340, -17564509, -10014696, -20144414, -1074776, -12291616, -15182309, 12208292, -7072344, -3378667, -16891127, -11416866, -25070116, -39746970, -63061096, -33538599, -12638805, -28051352, 5497674, -19049525, -9674178, 3437407, 10244550, 1898777, -9260120, 5867070, -13469175, -1324087, -15837284, -14058481, -31520646, -18386511, -6043619, -36709279, -25707306, -54385293, -48484381, -40092845, -68763383, -54059912, -40089745, -21228131, -40553037, -39503016, -13857501, -16257076, 845084, -12781406, -5707655, 13917173, -17863452, -12208877, -12021383, 13765208, 16114431, -11082985, 7840865, 3700129, -22128167, 1507167, -4057020, -20824842, -6406370, -22150191, -19604007, -13933680, -45253184, -49471997, -16962193, -13381094, -8767425, -20090785, 6706990, -8624155, -1341051, -11651997, -14871115, 6188179, -6878388, 10454694, 16366661, 6889556, 14360103, -13545089, 7898752, 6293606, -10340394, -2411898, -13578250, -1976302, -19869683, -12838282, -18790338, -6777233, 1710675, -13469711, -8116478, 12617739, 1373823, 1191329, -10751453, -6295917, -15890826, 16341688, 1363706, 7179230, 9763015, 14633497, -14715655, -950366, -17484790, 4647987, -11177015, 4966965, -15043566, 7764124, 11187939, 8672114, -15494026, 11190860, -10418786, -15092647, 13610515, 5690883, -3547307, -14061081, 4114016, -8575140, -14998168, -3411336, -16770372, 6970228, -13673478, -8041244, -18115100, -2749204, -10326018, 1922443, -3866167, 12208881, 15783420, 3847789, -5899166, -14686893, -12815908, -5924562, -11231109, 8156076, -7963236, -21411, 1661401, -18017028, 8985747, -10324813, -15584324, -1109184, -16915465, 1251780, -11510804, -3812765, -5147722, 13009337, 13439240, 17702283, -2194252, 3457894, -14074801, -11251769, 10397246, 4592880, 5071233, 7991651, 6839878, 3443585, -13132010, -15156266, -10180767, -1636774, -19814765, -28685227, -16113494, -17006148, -27413940, -25777232, -33133153, -10555124, -2216678, -15448662, -12424339, -16641365, 13686539, 16740000, 13512219, 8003244, -1105853, 8697863, 10952313, -5005745, -14181314, 6714032, -15667545, -13170817, -27358344, -36828861, -31423979, -11640140, -18416081, -37705489, -60402550, -45093585, -83979726, -74262552, -76671921, -48824210, -26340919, -48681282, -12943665, -20932529, -4825785, -8407297, -4132535, -20273985, 5131545, -17316917, 1433638, -14238450, -27563415, -7143827, -23918405, -36406837, -46681531, -46434086, -37886560, -5767960, -22986086, -28931113, -73795334, -102435425, -77526540, -76861009, -104183756, -86225793, -74516445, -86004883, -53725179, -45581557, -26177587, -5415596, 2373493, -24028093, -17999709, -19351201, -19706445, -7940400, -8642416, -19417759, -39898414, -54137614, -31912930, -42803317, -1090068, 16212068, -3449949, -19090038, -66381969, -71028113, -87985836, -49043693, -83386786, -93315400, -75022817, -65262280, -70615686, -58109060, -10274315, 3482856, -18183973, 5591768, -16805056, 9058550, -410388, -8993123, -37611984, -44370785, -54972310, -46477664, -59817672, -18994952, -35774671, -10983317, -5323633, -11680976, -17194247, -41805249, -35370950, -40141728, -51327128, -55051822, -77636182, -52822895, -42179331, -53893525, -42775624, -10114565, -10816250, -3713917, 6901020, 5541137, -26454285, -23263568, -31659104, -40309347, -28971497, -70176952, -56440048, -54976691, -22961175, -43444533, -26211580, -66883221, -35245694, -11235915, 24232719, -18624201, -31599946, -36471486, -30870371, 829279, -34881197, -39925136, -15277046, -21323198, -12549511, -27814843, -23742847, -19542197, -9506422, -21027038, -32547973, -31379659, -66190921, -87534122, -27974222, -32611217, -44935308, -36821943, -34214679, -48492417, -27519369, 48695739, 45724541, 32479070, 16021110, 5731653, -12887815, 259031, -8371508, 144536, 6415876, -4878229, 13150482, 7420130, 10730236, -16125824, -21582248, -29393660, -35693787, -60601890, -55729732, -22894328, -14702314, -1590305, -46037000, -59842195, -27354341, -1977290, -2589216, 41033980, 76386690, 52405734, 51661924, 52317906, 2324104, 29932309, 2687833, 9360218, 4772872, 141794, -2971415, -23370039, -3741309, -13606964, -17560717, -14884459, -4828622, -47431748, -38794365, -27883319, -20586366, -37789904, -41301135, -12804084, 32003850, 27983453, -3554939, 8730819, 59507929, 71230933, 79457998, 45882225, 7272196, 11671342, 45016799, 53303644, 27898692, -6873016, 10177320, 252333, 7539404, -18432135, -1007085, 14628732, -31430516, 9169627, -25811613, -5786010, -8712514, -31314995, -24336094, 14961897, 34802858, -6502772, -63252226, -60401876, 44169214, 77418268, 63614182, 77081203, 36735602, 50433572, 81205457, 45615919, 15775273, -14545575, 548017, 6837137, -7506286, -15422758, -8950655, -23110049, -10674600, 23213426, 7182727, 405896, -190614, -16531013, 23938565, 55063151, 37191629, -44435717, -118594378, -104350612, -34452509, 15199543, 45575548, 59900936, 42772483, 57572749, 93282655, 98001301, 49377028, -3542063, -17551035, -15693424, -11168171, -16188214, 6352803, 8488192, 10526006, 39982919, 41695662, 48252307, 4843331, 14686455, 63438743, 69521256, -130795, -104816698, -154944494, -121168792, -75536497, 10156726, 53516209, 21249715, 35541326, 62737897, 107364193, 117495224, 48912123, 5512207, -9107831, -4632278, -790389, -441727, 11876644, 2769320, 54622129, 28295325, 41335821, 60621768, 66224754, 55499196, 68634361, 34987301, -35702340, -117768146, -189550042, -167096972, -59453655, 16667781, 7067814, 9893982, 23425624, 71705192, 109483868, 112173378, 51739626, 15547284, -6013029, -20448118, -1174596, 1960455, -2248969, 18907260, 52217510, 43533649, 46047408, 69478840, 59872333, 80380291, 70154518, 10118096, -66164061, -169149831, -226592839, -140208289, -72517209, 3849843, 7371527, -12943447, 16971000, 65670371, 103256308, 92169866, 51420182, -21090176, -1493840, 7035750, 6700501, 3171702, -7124995, 18832685, 69469914, 56382827, 38946960, 82256109, 83291166, 78195788, 44515714, -26414251, -107576825, -211397097, -190525904, -135706753, -59343990, 9943970, 12970747, 2361339, 13724200, 43186266, 76832399, 95722347, 43926891, -23517894, -15003582, -22379300, -11533075, 10029590, 10140558, 12269890, 85865781, 50365422, 59902795, 73498569, 92277087, 72494701, 40497087, -26984861, -143687576, -220727563, -152916983, -84309846, -23705130, 8540341, -5355153, -589459, 7294852, 56321189, 81921428, 40346771, -11666499, -6657569, 926997, -26999110, 4307285, -4570535, -36474377, 18780893, 66747017, 48768204, 46712529, 65848738, 46285987, 75889789, 51292945, -43194372, -171108767, -165351972, -127833366, -48600171, 17896984, -4874065, -22719076, -22708377, -10654910, 39227527, 68028957, 19897044, -4032141, -14103848, -21326121, -15014666, -25555510, -21451982, -35804272, 6165270, -3866391, 39447840, 46897270, 85001141, 72525047, 49285401, 47268033, -39016541, -99910684, -140532464, -85958108, -18208979, -36427487, -7391069, -40644389, -49885519, -1498893, 4247999, 6582936, -23088967, -3117926, 9981, 9389710, -15090904, -13998067, -13207775, -21422053, -6232971, -7985935, 16107837, 37378587, 59467178, 60729533, 40005635, -741144, -37764352, -45132447, -62062234, -50364953, -16300172, -47629382, -24860190, -79438768, -38014196, -1864932, -5377961, -4271698, -2878100, -20380428, 12948771, -6931742, -19178173, 7228715, 8445041, 11568215, 13327505, -4335476, 12065001, 35461344, 16374134, 31419717, 18418709, 8784296, 9217183, -9256979, -11808602, -49805265, -38413994, -32497004, -42110395, -83853617, -36655333, -37522178, -28197350, -15384915, -29942881, 1148260, 9507564, -12928988, -13022043, -7224940, 269039, 3553916, -2075076, -8818482, 7335483, 18404981, 25228908, 27257051, 26523942, 25567349, 19298844, 4711304, -42138472, -13303454, -27897183, -33285700, -76245986, -40720977, -56695443, -40041890, -40488526, -12622381, -25894601, -6980506, 16926769, 5633870, -23560753, 10449237, -11397529, -7242735, -13077638, -28491676, -4573782, -11597143, -12434902, 11173854, 27160138, 22119291, -28513206, -14427094, -13296344, -24034217, -64291522, -65729752, -61264057, -49330048, -67255087, -49999524, -27320737, -37323531, -2600907, 8359828, -13503863, -9130398, 5657171, -13835659, 14535448, -4341865, -11681024, -5744222, -43707646, -17421817, -53293597, -32235332, -51316325, -22680389, 7428261, -15722748, -17800141, -30885704, -47134303, -55518568, -33863943, -36150593, -67832783, -49270570, -29300777, -15752727, -8095843, 6605265, 4067187, 3081401, -9407382, -1666623, 10408413, -4058651, -29163741, -13435909, -3656464, -39857630, -20402117, -29599715, -22492977, -19285046, -49666218, -50885770, -60190752, -56929484, -45781929, -30229785, -45440104, -52867055, -25564963, -26448352, -27175408, 459866, -11291642, 17291727, 14827713, -140507, -3090697, -7577428, -15125611, -14868678, 2175174, 130269, -16132502, -25785534, -23924872, -39727088, -33888213, -13951969, -33263713, -18386800, -25797592, -48159793, -39219089, -40608611, -48995577, -23366651, -30838553, -16356418, -14788270, -16894894, -16771205, 15778575, 13877613, 11812462, -413168, 4007625, 5097870, 9922619, -1297220, -3922067, 5214657, -1157998, -20619156, -2510018, 727286, -25535205, -37388615, -22131622, -29323969, -5159621, -22980362, -25150653, 1061175, -3459205, -5552913, 6343875, -24431251, 3032904, -12535067, 3438061, -6651525, 16312791, -3427979, 3327697, -12446261, 12424246, -16081683, 11429647, 14188652, 15806334, 12477825, -4056598, 5186725, 6459325, -15142580, 13240406, -10613151, 9648763, 20257855, -2901065, 4771451, 18463446, 16579829, 16727541, -10701938, 5140805, -13308111, 4496281, -16898973, 2060032, 9044183, -15906895, -2720179, -7383509, 14675779, -1770168, 11118624, -13169870, 2502648, 15208616, 4006725, -2999143, -4382600, 14788817, 9964823, 4192634, 13577144, -7921629, -13623094, -4083403, 13073843, -17275358, -8868455, 4330309, 6729349, 8924842, 5694731, -15758494, -5812337, 11006479, 3268217, 9917421, 13451498, 10418935, -6437383, -9040214, -2244340, 1669646, 1148208, -647137, 6594954, 15381151, -10638436, 9884913, -17084051, 1353703, -17980257, 16313061, -16494399, -10367171, 11674399, 9380592, 14007018, 4879860, -16053747, -12519925, 12226050, -16610229, 17512523, -3582827, 3166118, 296558, -2940042, -5392324, 1819328, -12597770, -8809240, -1005554, -16253604, -25258545, -24900921, 4381553, 4622794, 682629, -17723378, -25212232, 2020506, -26165599, -11839692, 7857565, 17232602, -5178602, -17108111, 4154871, -409218, -1878157, -15773006, 11233260, 673795, 1559008, 4091209, -1099884, -26308045, -28584158, -52329384, -52306734, -55872429, -46264473, -45408867, -24769051, -20844655, -40523831, -23458511, -29586481, -52163884, -33004094, -12970088, 4839302, -18721897, 12448770, -1377455, 1191973, -52999, -12569543, -9499930, -17399443, -9863406, -9243351, -32708608, -28341480, -62360555, -56147411, -105173171, -94889812, -67526788, -55473790, -35038356, -21228852, -53326558, -68749472, -43435801, -76149814, -78958899, -81982248, -60186494, -50585575, -32664001, -18742230, -2478916, 9618804, 6899640, 4324810, 8802241, -9308690, -1716109, -49456794, -53606227, -70965581, -94952725, -106256485, -114739984, -56176927, -30500229, -12407608, -9126135, -529484, -30569607, -42747166, -39549746, -48829190, -74835457, -87661281, -69945358, -41808415, -43176681, -21619143, -2651889, 17190773, 17217655, -15848335, -17968602, 6698885, -24710724, -47087312, -76209083, -83552912, -98770559, -101869591, -84651351, -43187715, -34263577, -19116407, -14504586, 23471061, 2226315, -1494442, 2427954, -24076227, -38502466, -73231690, -76587804, -40430695, -56767885, -6202282, -8410588, 3803594, -12441568, -1635358, -31557955, -31425785, -45476213, -42175177, -69735460, -98984629, -71348697, -54584626, -65374248, -26124023, -23687067, -42219818, -38447727, 17680606, 38833082, 13395308, 4206783, -5661985, -18931204, -43314688, -72355084, -75257130, -30701276, -13828431, -19888, -8593039, -6233195, 6381269, -7613488, -28574092, -55934481, -85368060, -85019656, -94830409, -62156476, -60605455, -72015062, -41573208, -65800637, -60460508, -14273526, 24674390, 27633214, 16878681, 4004290, -3988506, -20785799, -50607197, -64144231, -58433350, -46532106, -36845554, -12306252, -12119328, 4316069, -4425930, -15081369, -14220146, -55470672, -79754986, -84731504, -66665046, -63364103, -61915997, -57643872, -74662805, -70324026, -29001862, -5570228, 1865665, -5357896, -9537999, -21176537, -13208850, -28318744, -35398178, -73236562, -44478897, -17668856, -35057053, -18302379, 18719912, 15942149, 4835728, -20360554, -14927355, -49892988, -69383770, -58475595, -49818419, -56280587, -78830667, -74042559, -88060163, -44860959, -42617287, -21141710, -21010052, -30603055, -12659023, -12764258, -20252606, -27419867, -37064653, -45893215, -45780137, -31006940, -8098337, 4174260, -3338660, -818802, -10289337, -24309782, -48382610, -57329290, -84652789, -66857569, -47895577, -71944885, -58154054, -95499270, -101858377, -109060369, -84703796, -91367923, -94010241, -66478297, -50349604, -3351023, -5569122, -4841020, -34550380, -28887786, -31630680, -28790677, -24667174, 6744549, -1718835, -13068752, -4654862, -9828554, -21230001, -36805969, -45462143, -92627332, -55180877, -45951255, -93111806, -90360686, -105281040, -129514590, -120876193, -144684359, -151193544, -99957667, -63005179, -36509581, 5780839, -10792709, -17766375, -13234047, -26513273, -4149375, 2671049, -6106755, 2743740, 9848921, -32297105, -35210725, -29385883, -57010826, -60070936, -70297398, -64424708, -71543552, -80717534, -85670821, -143066391, -156860828, -207845464, -199189842, -156279549, -133421108, -95846407, -33847693, -45410685, -30513648, 10250450, -3541583, -14090001, 3173568, 8568833, -9139358, 9253165, -889339, -26506228, -30096104, -17897177, -20419590, -50060272, -71001530, -78947194, -80144405, -64615689, -99110872, -153574139, -183775932, -237310588, -231526300, -193308696, -174312368, -109399326, -51117897, -23895167, 579364, 6766748, -5292582, -7854933, 13329663, 13877154, 919177, 166741, -21185338, 108518, -16010214, -15423587, -33879526, -39014149, -43512776, -62413674, -80501571, -106771335, -154657885, -171889529, -217871636, -224159867, -225150615, -196058363, -107422546, -71697973, -7434141, -120404, -13892082, -2288677, -15193602, -25133273, -16299626, 12273178, 1158960, -5948382, -20610796, 8763891, 2568282, -12757001, -28444439, -45692198, -36829054, -41148618, -59604749, -138209581, -197340563, -250792772, -208605886, -193817779, -168300241, -138135344, -52324854, -11650376, -21941487, -18009057, -25965350, -3646791, -6761225, -38441520, -17477294, -13750453, 2893841, 15527241, -12044149, -18510722, 20186931, -7944744, -10614404, -27536031, -10164468, -34753084, -17767783, -56567263, -163320363, -187121764, -179378182, -124382921, -54644812, -17720964, 22699483, -6970339, -1778490, -24434647, -40732432, -10927086, -12302063, -30412242, -12503581, 13705546, -4874637, -9231701, 4036551, -34177486, -12870879, 8658607, -42185273, -53355783, -27187785, -10536206, 2453928, -11996375, -34850642, -73742136, -75558178, -20647939, -15291739, 1364897, 6931766, -10184018, -34713939, -25950875, -2637709, -17068192, -7484965, -28816624, 12256715, -21169154, 6918658, -14484196, -16018450, -32407835, -29405281, -16934449, -57901416, -75320214, -48006099, -17640496, 4775718, 6609822, -904470, -17487099, -30127222, -30693995, -12790423, 12989141, -37804332, -54080851, -47895681, -20721409, -25109246, -29105505, -36935024, -16605986, -25873302, 2045471, 10170760, 10330794, -20397168, -35769895, -14406096, -6704136, -21106385, -36011610, -46441454, -26531504, -1028267, 7921755, 7639418, 3003775, -8025954, -23006283, 6374525, -24613099, -39330225, -71903124, -56863312, -27913632, -30069826, -42295691, -18194990, -16477214, 6170594, -6731135, 12744557, -1758022, -13809488, -30533317, -37250131, -13397466, -18429540, -41326374, -33163175, -24392182, -27851516, 7384882, 19134199, -8761594, 22873105, -12359367, 4178131, -20584229, -59499610, -86681090, -70219330, -47425587, -53558026, -42203430, -17021140, -23672961, 2258380, -10424116, -4780926, 13596974, 4278099, -24840640, -38732275, -30978084, -669363, -13097022, -5638915, -6477220, 20634281, 48663672, 61886746, 62414438, 59969239, 54449137, 17425837, 653925, -39134260, -60346931, -60274433, -40375967, -61384678, -48654363, -26409773, -19838614, 15986718, -4681621, -11528401, -12703699, -11426434, -33749353, -16332749, -10124341, -38961720, -43806139, -24348838, -21231228, 30458899, 29179355, 44473704, 42636968, 29777853, 29321853, -3731206, -43456398, -34667220, -80849245, -78847557, -73233217, -67359164, -33494432, -38886920, -27034266, -22731895, 8663507, -3410281, 6837512, -11692257, -2592697, -598857, -30656328, -25968341, -54906338, -39841339, -36209054, -41044284, -23332020, 3127840, 3631441, 36493182, -4756791, -12071803, -33797514, -74246891, -83302736, -69775343, -72936662, -43237496, -27162023, -11560494, 1924220, 2303395, -16957372, 7743291, -5005721, 3666809, 5924493, 3266342, 2534898, -4627424, -41677222, -43931454, -45316964, -70186101, -76133691, -109452538, -104762532, -98584585, -69567949, -96410401, -73002383, -59579059, -59577715, -35756759, -16074246, -5015175, -15962992, -6096204, -1683427, 10279046, -9638970, 4445835, 10269998, 10564894, -7193448, 9185918, -20277642, -16299047, 1110267, -24994943, -25186775, -14593339, -26768675, -24985736, -22468524, -39502900, -45930326, -20701353, -28125003, -12849590, -17564390, -465038, -24332713, -16427813, -20595487, -16619386, 13341209, -3831143, -8987923, -5682739], [-1486603, -5422699, -14974533, 14187569, 1000502, -10851100, 7088675, -3727117, -2818994, -12243294, -15449022, 7291818, -13361309, 16079549, -12570801, -972591, -11286049, -10514771, -12840300, -8119129, 3111994, 4069703, -6162783, 12701354, -4754777, 407477, 17178265, 16406709, 15164910, -14751652, -8982500, 6582038, 3335184, 17162114, 13311727, -10168686, 19380946, 8178907, 11760422, 391662, 16314009, -4871937, 13292176, 21947850, 5179869, -6157755, 2665495, 15839824, -7144720, -5614422, 6171308, -4296055, -1359774, -2873987, 17976575, -15369476, -15317594, 19707255, -1476140, -14663235, 9554191, -10496512, -996774, 8574990, -15120610, -18663630, -4492842, -12888177, -12290557, 15829600, 16255962, 15512857, -7196570, -20418424, -22896746, 9309819, -9139281, 16169837, 17033886, -11039004, 8473172, -6088928, 23114339, 12885330, 5038653, 15086453, -1447533, -1613006, -977519, -7960015, -15042148, -6104498, -16081981, 737510, 2121273, -29515605, -8694713, 19592097, 2735831, 29681230, 34789201, -638667, -12487258, -10095640, -26944848, -21728132, -26667822, -15402806, -13314139, 13750481, -1106628, -3623741, -13836968, 24095, 3330516, 3530689, 16326861, 9886310, -4556281, -218340, -32379314, -35487488, -19939544, -14602254, -5418597, 35071101, 42544391, 32648027, -13715852, -47629844, -45324955, -27131999, -2657705, -21405553, -6282589, 14423457, -24672825, 12635236, 4602054, -9632769, 16668817, 20639760, -9428554, -1454402, -13019813, -18825129, -5917153, -19491896, -16891951, -39070301, -14152457, -2765503, 8234699, 45069192, 24279097, 16220804, -21691341, -34335505, -42756326, -18273681, 40920231, 32859728, 33856396, -8535004, -8185186, 3756366, 5462539, 1433765, -6898692, -9082685, 12973302, -16373245, 5398485, -22904227, -16065057, -52243683, -77668756, -45308430, -2627086, -8495102, -7713146, -10970108, -22225395, -32509707, -75441055, -45728277, -39106201, -1502109, 17024091, 73958948, 28662916, 14896156, -9146874, -8407049, -20096682, 2881169, -12999784, -11862278, -8262415, 5873596, -5066328, -39179944, -35833739, -73147342, -91288999, -102996863, -52664384, 3887744, -41638453, -37584879, -47324270, -96805990, -79677001, -59008192, -54322299, -27435025, 13718835, 29526729, 18012645, 6197379, -18506521, -8273801, 7810435, 8633663, 16040286, -12802568, -10257547, 4773511, -2157031, -24140976, -35731833, -45427818, -75203694, -94096705, -41163694, -33838429, -2895526, -52599318, -2686423, -15052957, -44825871, -24384454, -38820110, -42338148, -18347139, 5699225, -4695656, -18027512, -42387854, -42467669, -17300051, -5191597, -2673266, -6498808, -15315805, 8705057, 4331046, -33508677, -49457498, -47218982, -66171698, -97790465, -76979622, -56095101, -41945402, -6111634, 45866836, 45999974, 4751109, 9334424, -21594316, -47975358, -33096202, -33898465, -13313605, -32741312, -51718660, -40229034, -16966103, -6525889, 3136999, 4786762, -5916465, -8321648, -2797137, -31881742, -37490904, -25639085, -44545729, -68823338, -68639070, -92874587, -52319001, -4072400, 45853291, 96797459, 83053738, 27299937, -92139, -38659357, -19881917, -39412998, -71206525, -32270119, -47595713, -39656773, -20017728, 404729, 6291560, -3578338, -13039303, -993766, -1399100, -9407547, -40249288, -32823578, -75235493, -109039091, -122214951, -112484388, -49333815, -16771939, 59261210, 88984691, 104673944, 57895951, 1544026, -29727347, -36777996, -57728730, -48926555, -44889513, -42105097, -27752077, -10316583, -10614584, -7011100, 21108154, -10502141, 12842471, 8039744, -27548008, -21391390, -51083721, -55186063, -113866761, -136221781, -98113984, -66580154, -40905420, 71553700, 112449415, 54163184, 43598365, -12780563, -39399598, -28632807, -63573249, -66249087, -62400226, -12105304, -4379169, -13748877, -3485603, 13966657, -12042234, 357127, -16791170, -16211940, -25252331, -21793634, -60516354, -66835992, -107025348, -133614331, -138694376, -78302294, -31074641, 77450775, 52356556, 56506999, 27160726, -35119575, -59565928, -70401661, -56771897, -52715581, -40240318, -11507306, -10395376, 14260161, -10037570, -14265456, -6254557, 8525203, -208544, -11758327, -25314886, -40149994, -48850674, -72194569, -89677863, -112812765, -111580469, -72059162, -7287865, 46709664, 82636692, 69929451, 42423878, -59628744, -61493710, -55157501, -55634975, -49372818, -39318252, -30057272, -6279903, 15944386, -10173480, -7183082, -3303840, -15101746, 2286450, -13483449, -20462502, -18395023, -48934914, -52672368, -85374638, -75794175, -54172870, -47059424, 11629664, 48034377, 73814191, 57318531, -1725912, -55188049, -56874178, -84340781, -66552289, -40943079, -24056075, -26780359, -22624003, 6816560, -10612436, 17838228, -5894820, 7425068, -12890814, -27512841, -40425900, -37978865, -61503667, -86886451, -32984935, -62611140, -54348212, -59502278, -24586145, 44424072, 72158195, 55133089, -31263042, -94251759, -103487916, -96954949, -83580784, -49578212, -44516385, -22080598, -17524330, 9057445, -3211502, 13749441, 10202411, -9112868, 7668029, -27260561, -59827581, -49973533, -82553320, -57730593, -25442651, -66264518, -60488030, -83663523, -19637305, 72932467, 43524221, 30170096, -31589333, -92663378, -121350251, -93329705, -73197380, -41832961, -51753063, -30589974, -16600417, 6479018, 12086564, -14963723, 11580311, -4768135, -5100525, -49092732, -64062752, -69283873, -100480318, -17154910, -41245021, -36388665, -63926965, -53949900, 681286, 53405926, 25466455, 17550847, -28760798, -79988748, -94066367, -60473733, -54837245, -47835801, -35743851, -7318587, -21081736, -9148579, -2621249, 10159550, -6728297, -9133572, -32281987, -27670745, -68599313, -65303408, -29478930, -52784104, -45391113, -67550071, -55707518, -46957545, 18623473, 30534860, 35138804, 20368680, 12256265, -24913147, -51373437, -47701743, -43248829, -37370224, -2167340, -13109243, -11351660, 18502003, 8032114, 7895906, 10720674, -11762863, -37976418, -16771946, -18183587, 5533457, 4521259, -25985844, -25814047, -33057507, -27029796, 10134852, 30674184, 76265514, 44369727, 36642261, 15418016, -28452370, -9128182, -34954462, -29764660, -27235700, 1576493, -1801787, -4758942, 24722172, -16524764, 15239955, 12720950, 13871830, 6103725, -16190514, 6804832, -2054777, 7554655, -7028423, -32312535, -42004991, -41179862, -35149567, -10222015, 60291365, 38539693, 17149990, -14918171, -24473634, -48715826, -40016815, -25450241, -48954323, -2635050, 7897448, 15483052, 23975618, 15883977, 2189190, 1208614, -7941865, -2149569, 20974252, 39760303, 47400571, 22485878, 29611986, -11116506, -35418537, -39216429, -86081877, -35842795, 9406678, 28086292, 12440414, -26455799, -7307312, -26483804, -16445218, -28843109, -15424591, -8215853, -18986056, -9971607, 25679037, 15067523, -2436743, -934392, 6330119, 13320518, -3545718, 37437651, 41723870, 28135268, 16653724, -34190826, -34109492, -62542804, -82884863, -13421468, -12167684, 27704155, 3756944, 8247383, -5529931, -651356, 5052208, -7667073, -16381208, -32298483, -10539704, -11512233, 14558165, 4972510, -15034723, -7015579, -9463078, -18761909, -15788848, -17019605, -6787378, -13728489, -43433137, -16123654, -9018257, -24525998, -4115920, -1542937, -36439549, 12549751, -17186150, 2722043, 10312101, 19212618, 8533183, -4257259, -25471952, -27237890, 9594932, -18313792, -585469, 10713028, 13584705, 17973673, -6765627, 4927148, 1137662, -28664032, -32655682, -27318709, -5961957, -23875868, -29262973, -4432868, 4096556, -22023162, -34347728, -23531506, -47155663, -9863559, -11243485, 6836629, 22297353, -9896571, -15601764, 9239032, -11180222, 805020, 5406156, 14516997, 241166, -2384846, -7032087, -6929217, -15128351, 533135, -9678381, -25510412, -18739041, -23920955, -20338878, -40965609, -17627049, -72496936, -26167285, -35458013, -17732682, -19163860, -38613144, -27266974, 1200462, -1753700, -10010143, -10207452, -12984537, 6474304, -11173098, -8955896, 9402970, 42797547, 4103708, -6343118, 19222675, 25010910, 1432381, 23108138, -3308147, 13427277, 7323732, -20867614, -11977373, -25031295, -14671702, -3997349, -17648909, 3348160, 7512798, 986472, 15789954, -6711011, 11698771, 955939, 10953452, 3862323, 3775126, -4453598, 6604140, 32346591, 37785448, 63291788, 37046544, 45518283, 40760159, 31712864, 51055979, 33036809, 53634576, 39227583, 52108154, 51359318, 50222341, 51908415, 29837921, 18505018, 36013003, 28128538, 47628913, 29425262, 43210443, 60856063, 45435790, 46301775, 62191762, 39900895, -4461082, 32212675, 36086611, 22455299, 9878749, 28066967, 30358706, 12586246, 16511103, 26227262, 38383096, 26578967, 44756580, 41952319, 18775761, 3068529, 6934055, 7810075, 15083597, 12276911, 8688888, 19298589, 13093569, 31300195, 15749145, 19914959, 28462654, 40412709, 14460719, 42618763, 25493711, 42360857, 38219221, 20228850, 42769779, 24922391, 35464749, 30435724, 18846083, 47491636, 42517081, 29753873, 8264087, 32868169, 20115508, 17363984, 18178042, 44068884, 33590615, 37515987, 20805934, 35696905, 22649903, 28059466, 25066135, 40250953, 28838079, 27067952, 25867935, 52761685, 36193870, 21036068, 19986674, 32956764, 13601816, 28393414, 2922110, -15087101, -3333753, -15499357, -4746955, 3623701, -1544506, 27902566, 36244303, 50899971, 27672257, 19504581, 15925793, 14518571, 38238522, 42947628, 32228746, 42165954, 28667174, 31749345, 40946942, 26725575, 45069896, 44922099, 40276874, 49474020, 33922475, 14384696, -21062018, -27988380, -18423222, -27835948, 3339102, -2991688, 2633917, 10321751, -11259384, 13273369, 8506024, 22699557, 26891492, 6737609, 29612429, 50869830, 18323394, 41185524, -3008014, 45401026, 54003026, 48309829, 45793280, 15897200, 32301661, 24930174, 29015113, -164114, -4535621, 3239591, -11797831, -15882596, -21034492, -53211939, -23660250, -35315640, -19301491, 7363711, -2537061, 2486781, -3553426, 16598975, 17382726, 32081712, 40985093, 32805622, 23543885, 30190628, 24934063, 36238298, 38290463, 44894282, 38174603, 13806771, 12483887, 36892667, 27702872, 18254144, -17175399, -3893940, -25977854, -40331386, -56987695, -33851985, -6307942, 23463853, -1699554, 30082554, 14455934, 16264740, 8759817, 22555573, 36942434, 33844214, 14969252, 41893013, 46906069, 55505287, 23724863, -1254324, -13854352, -6524522, 42241424, 28805174, -8669800, -1462066, -11230519, -5226955, -42523798, -71221441, -56090247, -9500903, 21541195, 5991964, 7997407, 17668052, -13080098, 1847687, 12327308, 2682737, 35859294, 35486005, 961804, 27884642, 30945627, 42199928, 21406835, 32935098, -13536219, -4865446, 33469014, 23098625, 10496438, -21766482, -4528663, -26802503, -49668789, -65610722, -38960885, -1032387, 41636929, -11981032, 9712893, -17588181, -16150916, -690943, 6644834, 27251877, 39299611, 59888635, 26468193, 14977858, 53913131, 41574683, 39908625, 32590121, 19884670, 16672762, 30717656, 1590116, -20875014, -6038649, -39290641, -43475229, -34544889, -11656824, 2840674, 10635545, 28174158, -2518035, 2064903, 5099600, -18700954, -8638489, 10819929, 5837026, 23249203, 56165751, 566884, 40960938, 26884258, 16529661, 36052365, 59084434, 58535609, 25965814, 22348814, 40469658, -37719894, -21020884, 94887, -8702669, 28920854, -4907864, 10857804, 21596918, 37860852, 14838973, 21968208, -2667753, 765281, 14004643, 23970902, 36511209, 42809017, 64512290, -591306, 37219025, 24033176, 36436092, 35026558, 21178648, 22109294, 13842898, 42584661, 20275008, -41167066, -59804171, -52915085, -380475, 18954692, 2746142, 16630188, 5995227, 33276219, 26725702, 18366572, 49798910, 13327942, 8673656, 45372903, 52051026, 49652323, 55059779, 12591433, 13657891, 32896440, 42095307, 17248454, 19897241, 39454788, 21498417, -3736612, -56246255, -72583444, -72572984, -74283756, 23399813, 40004153, 13328609, -12850730, 296676, 52592386, 38271558, 51694844, 41879863, 13775818, 21182451, 47138683, 56392606, 29976510, 57245143, 28804876, 17276447, 31022312, 49946234, 26393453, 33600986, 42558979, 36828797, 1986320, -41735314, -94754711, -75410903, -28296288, 10861387, -13362219, -20423910, -50965305, 7752382, 50899282, 47629468, 20592432, 29315772, 42020451, 46017028, 37748743, 20792691, 42354170, 51286358, -3365827, 15754525, 42156558, 32043841, 45930073, 27442344, 22271991, 30316493, 591195, -67542113, -64742588, -49226068, 11989743, 47521304, -13005755, -36456998, -51006187, -14563386, 32228377, 26389332, -5721962, 24751201, 42782173, 30901162, 29067073, 21607881, 25726909, 51046122, 18086692, 31874165, 22801293, 24765577, 44510026, 31383332, 20926945, 7737788, -32382905, -85914925, -70059627, -5505430, 67949422, 81992202, 5305263, -57120234, -40818986, 9454900, 4339541, 2578456, 5052850, 29552765, 34282289, 40731184, 35803735, 33727199, 43514065, 40800657, 14719214, 38207237, 37802853, 36071803, 47239400, 42589087, 15510184, 17050149, -20851998, -43206163, -61170381, 16157810, 119516328, 92493750, 23555186, -67605086, -26646998, 51740721, 44650458, -3548833, 7857544, 4148266, 39977763, 34021799, 41996133, 17827092, 27875854, 63910954, 5776355, 37132196, 49043823, 43486357, 43222766, 6530572, 5335822, 21885855, -5268408, -67633241, -78635819, 44382405, 105309889, 122796997, 10220632, -60838487, -30497730, 47963299, 49845546, 15695555, -3905356, 25553668, 20047149, 30503592, 38511839, 43654628, 22293376, 57350926, 10511497, 32579806, 26480732, 33850361, 13414398, 6765478, -2583027, -6864814, -31354886, -75377777, -49021453, 36396340, 130106673, 115999401, 4219145, -30089505, 1760538, 68994455, 39769843, 4237384, 14240197, 10462969, 33666469, 48861921, 30023452, 19341057, 23773601, 32184530, 22178227, 41366480, 23016753, 37890501, 24465419, -16681299, -8581442, -41576631, -109553769, -108117029, -94119988, -22122221, 66275671, 74086182, 14914328, 1751562, 29712085, 73569909, 39078470, 43882061, 31812288, 24715045, 25365647, 33951912, 40331632, 36643002, 22000672, 49300563, 16492048, 18239828, 34475960, -6617091, -1513903, -23746723, -13973273, -39922655, -85500963, -83929218, -58174394, 11131008, 54239444, 78794301, 52167196, 51016662, 79420544, 93976602, 68243980, 50703455, 30546103, 48877101, 52427646, 57465114, 64058959, 34511253, 25788186, 63200198, 18121563, 23799285, 35731208, 28585428, 35854351, 13043460, -3585235, -18015394, -61073389, -26169263, -33631224, -7429361, 42522147, 43451909, 57054568, 50104067, 62992848, 92408024, 57376847, 64555734, 38763143, 22791762, 36828298, 44874538, 58265872, 27830511, 29736143, 50522711, -2478498, 27046701, 42319283, 96070200, 57804462, 52235287, 40669899, 7860530, 31401429, 4926883, 16017333, 17380480, 14575524, 47280908, 30293768, 17226707, 46333581, 58688346, 29082039, 12926470, 22518722, 15025893, 39460186, 47343843, 34258269, 49104553, 36238737, 59153039, 10676597, 37103742, 53936716, 92611589, 68671294, 67330487, 52831702, 16675550, 5083418, 16417757, 14046323, 15487234, 5884686, 20266106, 21089150, 25136171, 57496790, 56283601, 65440759, 42975251, 25901821, 41923154, 19377727, 33528168, 50160713, 33438597, 37319619, 48719555, 30843943, 39228983, 35467338, 37811227, 56369066, 33057451, -6180971, -27458457, -67985237, -74536771, -72792947, -63120171, -1651905, 15587405, 5999781, -6273772, -7200913, 51298331, 8167326, 46538714, 24160402, 20768864, 40357079, 39763045, 30789047, 46953965, 18038817, 44806752, 4534292, 19215267, 22392619, 27062027, 45214415, 15205609, 7039267, -24094759, -31549487, -42160269, -42719193, -9274506, 15119212, 5676018, -27913580, -29895619, -21698186, 28308405, 12987733, 41228358, 34788791, 27601628, 26683416, 25078252, 39384913, 39462518, 27120795, 41649207, 5812402, 23981746, 21164041, 15283972, 30260377, 31143380, 10644850, 17943174, 6598424, 8097229, 8339113, 14458094, 42265818, 21426866, 12935044, 16704148, 19123932, 25606947, 31258374, 44112369, 10398321, 30682236, 33978421, 37517440, 32023992, 43712195, 35099488, 23286156, -13895063, 26875814, 15070658, 18076960, 20699669, 24228908, 18297415, 13466117, 25080789, 3340697, 3573799, 2185592, 31648286, 1112463, 6865859, 27295163, -3333181, 22312092, 10209804, 17175995, 22075526, 22830881, 19499755, 9043958, 580799, 21501148, 10275118, 40261421, 2123087, 37168007, 12252961, 11151392, 9743595, 27058285, 14857399, 26565390, 11528493, 37917621, 36576539, 20433079, 26503006, 22224370, 18818803, 37226304, 40713128, 34095347, 9072367, 37128232, 35430361, 20937497, 33400081, 26938615, 12645845, 13863603, 19595526, 10826850, 13829931, 42708274, 21393029, 16930699, 10979869, -11329301, 12043881, 22111874, -673147, -3992691, 4535654, 23234, 19487940, 24291396, 20092987, -185020, -4054782, 4382726, -14564722, 3548837, -3361923, 12967992, 21171935, 15252976, 22025274, 15747897, -11828906, 3496753, 19380430, 49108677, -12593832, -16118752, 1822922, 18651806, 533516, -8031759, -15419010, 2736025, 9494859, -12222067, 6710577, 5222765, 13834632, 16935565, 4739403, 25499010, -7502320, 4491586, -2904063, 12299903, -11249200, -14234868, -2529473, -566239, -11186136, -17629085, -5058559, 56220531, 18737648, -16069615, -7500402, 7864774, 11094400, 10516912, -21749780, -229720, -28221479, -23135992, 8515895, 4081029, 27467573, 17341997, 23765245, 10673532, 8913997, -1864348, -21634776, -125150, -12879036, -21639293, -19238535, 12442502, -7516483, -12895365, -9391546, 52999876, 2755369, 2229920, -14816731, -13634666, -16286528, 2277880, -16197376, -17768543, -4334467, 7633103, 13028141, 2087257, 10392691, 37203640, 56129113, 14769163, -11335934, -26754223, -11470608, -3634133, 33172321, 27737977, -9840721, 927316, -26108980, 3309641, 18597260, 37871107, 11441266, -8274844, -13828097, -1790072, -27756015, -22453388, -9919230, -39275765, -20564565, -13276060, 25371270, 23105901, 44040307, 65997869, 44011291, 30647451, -6061589, -20242743, 14566850, 54928672, 52136555, 63810684, 29446345, -9816891, -21973435, 2613788, 7812765, 43179415, 12203829, -9271986, -12883473, -9338909, -29905109, -36355656, -57166938, -73598906, -53643852, -21150827, -10897371, 28862050, 61545458, 56953561, 53007271, 24274191, -34197766, -5860740, 12088023, 56415826, 79543352, 49213711, 7146584, -17978741, -21922734, -18116334, -10709959, 51563211, 6400985, -14986218, -11331218, -11195605, -21068975, -19180520, -46502478, -103706278, -69220290, -55385567, -17998720, 37747644, 16611295, 25321558, 16744161, -45399312, -3439858, -3906037, -28439943, 23472045, 54533415, 31887446, 4642397, -19857924, -9556177, -15369116, 6224677, 27837738, -12898557, -13758251, -27047835, -13083672, -17678084, -40076923, -71079001, -73639989, -115279295, -91591515, -41950092, -34854162, -20973617, 1825789, -117035, -29320728, -31404089, -18787783, -2639750, -10245985, 20667998, -2379595, -34408994, -26340485, -15074655, -8143532, 10435034, 34100309, -3000468, -7256829, -18154774, -8875662, -31338394, -30898327, -72213382, -102203488, -85946210, -87868363, -74901089, -106077418, -14355442, 11890368, 33038817, -9233548, -21564893, -9000147, -10278809, -3257142, -44746194, -64427182, -38955726, -34607477, -30045269, 484740, 18012794, 52164383, -9145265, -11606375, -16169770, -15122294, -1408157, -47263954, -87779634, -78153908, -96153699, -112913817, -138291657, -111888982, -48853021, 46131220, 52115373, 15197761, -5588844, -10293859, -26431445, -35533205, -53593624, -77601336, -37211150, -28927568, -7235493, -4142388, -8467070, 35548665, -9580147, -5172700, -23603311, -17859606, -19080626, -44943366, -70123851, -72591774, -124230869, -160090804, -186772600, -133205831, -36130492, 58541179, 70870958, 69924422, 13403135, 727684, -31747673, -52613970, -71247876, -75978220, -45387074, -4416320, 6387452, -12038955, 10279814, 54260455, 602479, -3960798, 10542908, -6762204, -19706786, -15413469, -50757069, -83269335, -90539053, -145476475, -155393317, -146073744, -30348828, 123025134, 132177919, 51848505, 32675032, 2211840, -30099733, -78225046, -72462246, -36549013, -21380877, 2564479, -15143150, -6237229, 2543322, 46020940, 6267857, 7737570, -12355573, -11248117, -16270207, -48294250, -37277374, -58479588, -89418411, -119773485, -137901798, -161178544, 2914417, 146021739, 116625585, 59013125, 12451052, -22416538, -62564231, -96842505, -55151056, -20496991, -24727620, -19090308, 9269433, -9840976, 9675935, 39639596, 5843317, 9858227, 188154, -13863467, -15325941, -33851959, -48928134, -70039935, -93405284, -87490052, -158743769, -99060066, 71799755, 123838939, 109954849, 71642727, -13189547, -40528785, -92207812, -84532261, -47518667, -41853372, -14713598, -28161680, -3276002, -12155267, 19077478, 47751088, 15953200, -10317296, -1909875, -27768400, -11922260, -35127755, -48897814, -59398904, -53700116, -85259788, -126497597, -27424023, 79017498, 139624655, 109652907, 51693197, -40982712, -108259216, -110369608, -96231215, -58418397, -45884207, -20979183, -16316688, 2321259, -11434690, -12783457, 45176178, 9175721, 5472591, 7518557, -30821312, -20329701, -28118746, -70414968, -36151242, -39067727, -95359541, -105915010, 1308597, 91956943, 117506392, 79780065, 12406637, -90355858, -161936820, -100982442, -85076027, -74956343, -68192698, -44773839, -11058873, -5097408, -16800046, 3164613, 37728745, -19202968, 1950808, 3314681, -15255922, -56382153, -65366007, -78006104, -35359222, -66586591, -71424618, -45521621, 17811589, 80973499, 80934599, 42193811, -35069048, -102982715, -155832842, -128879309, -80280051, -87540090, -62645145, -33206489, -4074055, 14726824, -13572213, -2946906, 36384840, -3882320, -16473642, -39276268, -38619131, -55973150, -84848836, -55527836, -76470271, -82351364, -58017775, -33479441, 34325156, 73042244, 73724255, 19512892, -61479956, -90698659, -96705399, -76298282, -55001236, -46193760, -57324108, -37535001, -19170880, 903285, 15248641, 10177664, 20161271, -1667120, -15680665, -15186768, -40255059, -44687096, -75114064, -47499299, -60376424, -92465691, -80249585, -3321286, 20328203, 75240046, 30505804, -22095673, -56976441, -64442389, -61958659, -50067469, -62895320, -34509335, -21863034, -27457140, -22955323, 13639354, 7985911, -6641643, 22853995, -13042535, -24374863, -26651792, -21400789, -40774148, -41248038, -44400774, -52046593, -67645408, -32387443, 17088076, 51798083, 35402302, -3119348, -56225844, -64640209, -97166017, -65566674, -23546962, -49708530, -40964361, -64760983, -45437209, -11892190, 8078411, 3464620, -1964808, 44721521, 14492495, -10543838, 8855145, -12037545, 4746632, -2831829, -11355765, 1893551, -21426683, -7536628, 19411188, 25970429, -1252886, -57872914, -64740963, -91700763, -71160801, -44184256, -21559952, -32233436, -51693294, -35283819, -36822665, 3963705, 3068960, 11855668, 22784397, 27674850, -1867806, -9063560, 11050805, 29937021, 29831553, 88646404, 71068764, 38518149, 42785756, 46214618, 34214657, -48408091, -75358711, -75577877, -47919631, -63753262, -12888413, -37563890, -40422611, -24274891, -44430528, -9517514, -15425697, 9012009, -4910808, 2029317, 13223744, 47490750, -1937170, 14046895, 8846524, -1955719, 6469813, 65175094, 68620525, 44149242, 68322174, 38462870, 7471001, -46279673, -34521528, -42637080, -10216705, -15631150, 7006043, 4300094, -20463383, -24114745, -40539119, -42631585, 8412121, -631926, -4956784, 4185330, 9295672, 35945375, -9274217, -11594516, -3509762, -2603839, -11448056, 44113789, 29057862, 30651992, 38579203, 251916, -63813947, -89659758, -57896134, -49153283, -32502465, -27735697, -19747192, -40022548, 2312576, -1948395, -36500357, 3777012, 7199426, 12446793, -18026069, -5487080, 6402852, 29797947, -319042, -4476333, 478132, -13624820, 16630288, 33073466, 21704247, 5581450, -27255960, -74528791, -76397285, -76437511, -56691460, -63351654, -47510441, -85116617, -44147991, -21254813, -13791595, 1809430, -414361, 2574574, 9933437, -10767087, -1493380, 15135640, -339957, 26124412, 10369862, 61471, -3864380, 6977016, 11990345, -27788468, -5826428, -29422093, -18119570, -44291221, -51532790, -70463926, -17256645, -17149152, -65700188, -46071250, -7978484, -2119376, 7245413, 11102026, 12123813, 16162224, 15206259, -3452835, -3488958, -12931744, 25733916, 76870136, 56109633, 49137745, 58773790, 62909722, 54654785, 44597089, 40654182, 27552595, 28869793, -4917931, 22065790, 48062939, 54083347, 14725626, 23950439, 43395415, 27800012, 41299995, 51437888, 57927836, 33559438, 39275382, 59448723, 60591605, 16716970, 11393847, 1551509, -7925479, 17546900, 23244549, -3637325, -2519504, 22687869, 10452305, 18747350, -4668861, -3975436, 22619838, 10463196, 7945987, -357736, 17025195, 11445698, -10518940, 15999405, 10738275, 1654746, 21788578, 16011478, 16826937, -4087597, 19234858, -10990376, -7222149, 5452625, -9366626, 10435829, 9997636, 3208145, 12911050, -718265, -5674269, 11974974, 67250, -10292527, -7107575, 5643765, -1640912, -3993040, 6007826, -16985035, -6542808, -17084280, 832172, 5173881, 3053543, 1825222, 4873310, 3208564, 4164668, -6495057, 16190980, -5774415, 8647908, 17050754, 2461941, -9926923, -4347538, -16145274, -12350095, 1644829, 14653495, -3485922, -582629, 2197407, -8145506, -9996386, -19012352, -4136468, 3046387, 11364396, -18338518, 8532150, -15018728, 8491239, -12418195, -11448466, -14767319, 15115354, -14827439, 12172818, 15391358, -11552598, 13007859, 16372940, -17251344, -12953288, 9662657, -16854877, 2350456, -18045546, -16108485, -27986730, -21205632, -37943598, -33032410, -11322639, -11978728, -13562692, -18641632, 3855151, 11236743, 8685378, -14403787, -15727170, -11748793, 908142, -1174014, 2635124, 6113344, 11383246, 9119324, 1801030, -9745960, -8410997, -17853327, -32763276, -37144046, -71255282, -46078980, -48088726, -63966706, -79970039, -76023087, -67276508, -55938531, -41074000, -50425280, -36904015, -36808249, -39987020, -31721629, -23566483, -10728568, -9671457, 7450941, 15776848, -12198684, 8436398, -959051, 10963494, -20446016, -13306623, -9122689, -30916896, -52229658, -44699915, -105884135, -123437151, -132434607, -139252260, -196874276, -187089995, -177405715, -111610666, -102289408, -83148271, -68817489, -56082007, -15355821, -15792603, -30856259, -25796691, -7106984, 11510313, 10284607, 1885660, 11958730, -12926934, -1233282, -27124977, -53642783, -49832135, -49571253, -73280878, -118028536, -125732616, -168317035, -214124963, -243415520, -255532622, -238071218, -171682358, -99078566, -90780117, -71159080, -49071584, -20942790, -20870492, -19917687, -8392264, 5613625, 7196350, 5778617, 12460056, 11353957, -13681096, -24871670, -53869907, -42969972, -46509653, -36465436, -67945257, -134379581, -149259642, -146556199, -227092117, -299572855, -290229440, -251566023, -158800364, -150318310, -88408008, -72014831, -40810611, -19598408, -21498684, -47213729, -16633410, 7188505, 4942347, -17182108, 6949922, 9965226, -27092595, -44257037, -72308801, -85861966, -57950590, -47174528, -74713171, -109965883, -135424018, -169923604, -180990309, -229096577, -256118298, -222297356, -146655828, -128218189, -87039664, -53802587, -35490114, -29788967, -54841802, -23724582, -17982779, -11196849, 4850164, 8129010, 1249123, -4680218, -16914688, -39040867, -38702667, -50187156, -18185930, -26232922, -84229887, -90682670, -118134208, -123242885, -132391408, -168430462, -179805636, -163007781, -164532855, -115500867, -71161918, -62349800, -67957200, -47993034, -28085556, -34725048, -11169786, -19837463, 3544993, 10964551, -3477376, -16554022, -18404085, -45794100, -43021683, -52563533, -22266550, -40223602, -47695115, -91624491, -109526895, -53498089, -52094676, -102006830, -144475877, -136020243, -127669871, -98256312, -104730934, -92418425, -56124780, -70794098, -39109413, -46039794, -12265321, -451891, 14268679, -11739101, -18277494, -25843216, -14669139, -36301192, -49708221, -51456735, -31369913, -62177185, -57038650, -70595160, -66553608, 13842312, -29422274, -81914835, -137554213, -139847666, -119314924, -70228681, -51185612, -51075976, -49622096, -58843542, -21667717, -29253004, 1036037, -9166342, -8355602, -1171277, -2340808, -26084714, -42462390, -16079826, -39248984, -33273160, -58399558, -65820567, -115611009, -82399145, -30281944, 2648073, -29533163, -69172353, -117758833, -98648295, -83894685, -66072367, -91782287, -47016647, -51578157, -40357381, -22543691, -3694847, 5227744, -3954604, -17202195, -1162184, 11870555, -18510029, -15291463, -23889920, -39247628, -48104469, -62462550, -116240032, -126623437, -87569684, -41799914, 1487493, -10776632, -58745626, -31771362, -41696381, -88726915, -80362014, -72273016, -67225032, -54643895, -20623736, -27980184, 105672, -8625198, -6255217, -13842650, 6613545, -10555961, 7261225, -13172561, -30193256, -10858429, -21445956, -100186065, -130065799, -146490425, -133012533, -64579241, -41247264, -57296310, -35549231, -40978111, -78892000, -112644508, -94834529, -85571811, -36485493, -53332631, -16365118, -1548672, -6319839, -2641005, -12527357, 5497038, 14883149, -11627352, 16183682, -16185015, -12763737, -7235711, -31421918, -92182897, -135769978, -179763883, -157547429, -96175849, -41621100, 4488126, -29691765, -69198273, -106873743, -133278072, -84022745, -80798402, -47272071, -51471706, -18734949, -12229478, -23208827, 12117167, 4596659, 8917092, 10146643, 8346998, -8183972, 2513625, -21159030, -36110431, -31785343, -93895718, -150310159, -178125203, -126241058, -42900611, 36837075, 39035708, -28385699, -65353148, -105380960, -143136695, -118294559, -92192508, -48426691, -16191946, -23847843, 2509120, 11165828, 9463184, 39450, -3304643, 17555730, 5990942, -9329747, -11194703, -35976265, -44429950, -38393348, -93108416, -203441441, -237537012, -160180449, -35088379, 25487967, 16678335, -58471270, -135074243, -176179931, -122399367, -117208168, -64231634, -43893233, -28870685, -12996893, -5469783, -19821193, 9734021, -12061220, -14669760, 4558864, -3378217, 2143203, -9360597, -46303030, -57666402, -78146487, -137417063, -197747082, -176108122, -126173720, 5114147, 34943551, -52969489, -105628297, -173070565, -168144003, -105077483, -92746779, -42065505, -6643885, -10724337, -14224978, -12072176, -7898902, 16504420, 14763319, -1769655, -6261486, -12516990, -12054294, -42977054, -69259465, -86897895, -90919740, -142000988, -149327785, -113784894, -46479344, 23249136, 17306706, -82332112, -103507958, -109053180, -98534293, -87060407, -37091434, -21573579, -27638104, -5776801, -21793343, -23866981, 13979997, -3208032, 19497437, -3751466, 14090535, -18929495, -30226642, -20827962, -67421608, -82517713, -95078081, -121349029, -64043872, -58489289, 7098585, 13444035, 3554524, -62280938, -76992884, -39842885, 2448120, -14305150, 14857301, 9958617, -25915818, -16034251, -9764501, 3222365, 5880230, 19022962, 12450349, -2418055, 12648548, -17238600, -16896840, -43283805, -27776940, -31921864, -21763658, -52288715, -33771697, -54697227, -55943210, -78183293, -76745629, -66929668, -17523376, 3227444, 22490762, 29040916, 2605236, -10284483, 4006742, -31957611, -13187787, -22848375, 5511617, 14461448, 2028901, 14201134, 7878329, 5795527, 7256821, 103974, 13089541, 13709994, 6137579, -13979998, -34885954, -26926765, -78267902, -65877318, -41479554, -13264907, 16418267, 30853357, 17771263, 21719204, 9027575, -7309226, -8706470, -8215172, -21751283, -11487927, -496419, -1209416, -14010116, -6618843, 271687, 1370633, 35077274, 65288737, 58731887, 29556520, 24949253, 17480226, -6016967, -63546516, -88247605, -99756174, -48732001, -25804030, 31063553, 43906458, 18097294, 29074686, -11058806, -16504593, -41914366, -50193720, -13259850, -7514106, -6404217, 2940065, -11136209, -3168015, 3489018, 20931564, 32837693, 36902398, 37974250, 24680350, 25702080, -4147406, -21246998, -72672784, -74632309, -68214372, -2662389, 15243107, 4211198, 22198938, 11002118, -388841, -31568572, -33339802, -36125474, -44112224, -36045182, -1969084, -17467445, 6154746, -3175844, 624896, 1568139, -1713106, 6658571, 18888270, 1399213, -21478428, -32563969, -51132612, -83133072, -86685143, -82567528, -58976956, -59771143, -67373239, -56808081, -62950425, -75158171, -34049693, -23896487, -11240910, -6347301, -1961811, -6479238, -16844930, -7247759, -2249596, 14222186, 5382980, 17171878, 11412597, -10975274, -19079085, -32190915, -31201534, -62862851, -80453351, -110638961, -119619995, -115540884, -125131890, -107487671, -110706352, -111633711, -79847112, -83052583, -24399471, -5882845, -9052437, -2339103, 4052197, -4877495, -17414471, 11442076, 4160353, 7464719, 9955471, 12618290, 4430418, -13793286, 13002314, -21836679, -7245839, -18846994, -11461862, -25744010, -42579498, -16269552, -25301427, -70782341, -39881203, -40859491, -36553763, 3270990, 9171542, -1784988, -16773397, -442227, 9192560, 2966928, -17301617, 16874025, 1629212, -4953053], [-15251782, 9477770, 8891210, 11920994, 12964448, 6135946, -13075842, -11767232, 17419705, 7997200, -15301582, -10974408, 14849280, -9544807, 7826028, -866600, 5877393, -3578571, 5614270, -9943644, 13467934, -7103725, -16750026, 5469075, 7566400, -9029174, -5572346, 14563302, -3213048, 11196597, 16893404, 8863774, 11379698, -12563864, -10811057, -3330120, -5048451, -3329234, 13398370, -9894907, 13307700, 14564718, 11904824, 7923807, 12670244, -10327267, -13261550, -16801886, 11273745, 3507045, 1499416, -8797143, 2866907, -10840650, -18763836, -6235351, 4535925, -16056934, 16160522, 4945701, -10653180, 398352, -4207713, 23344124, 3558228, 28191749, 10470881, 34767777, 15499308, -3772595, -11314703, -13866512, -11589249, -27581811, -25228798, -2179653, -27915629, -1441402, -19831588, 16720898, -10394192, 16768111, 12944122, -15868653, -8203130, -7781691, 9534802, -3251825, 4986419, -5851555, 2465858, 25882443, 11758138, 23547186, 64563207, 62928103, 49026839, 17017225, -10493961, -10167847, -16820259, 12675536, -27246384, -59627600, -55980187, -22518922, -8148791, 10165885, -17059619, 11950548, -11539483, 12049088, -3883981, 15674483, -10355536, -8555186, -3141106, 8685923, 8230978, 27445722, 27022686, 31492416, 61953489, 68984300, 50135046, 33711150, 2773418, 11050827, 18212887, 13508737, 22661246, -30916713, -31318933, -67544304, -55804051, -35997912, -25592482, 2843172, 7854332, 13376595, 10328357, -8960770, -19172786, 8107109, 11528905, 24402274, 21950554, 25555545, 22792783, 24041751, 27423508, 36109265, 49459822, 49624052, 18235911, 48069648, 43433663, 38197756, 9660941, -7485521, -8224644, -34964141, -58237873, -49120236, -54283395, -17557973, 661647, -8772148, 10443079, 6173064, -7489101, -10684400, -10686812, -5995386, -6928168, -4893474, -26981076, 10664620, -9280150, 7599194, 45332160, 56605555, 53745728, 43705180, 33021323, 38125280, 6692573, -541852, 11123710, -3424458, -42548373, -68023235, -51989395, -26073799, -10059866, 6822072, 12106918, -1936569, -6161398, 4623464, 21454917, -3640492, -22160104, -28039902, -4955289, 7913126, -5326088, 29551426, 51180471, 45456212, 38626540, 5595080, 7193620, -10865674, 20201394, -29704185, -781127, -30011417, -31516440, -45876306, -38579389, -32261003, -4880080, 13193782, 17208371, 1759361, 10203518, 29441403, 28657531, -24948299, -36812797, -61438531, -29491551, -40028021, 12521202, 18659772, 37706375, 56031287, 42001273, -10777717, -8351458, -39991226, -4771524, 14145735, -34741037, -12241303, -3458466, -18239392, -44476934, -44880114, -1443416, 697190, -18150071, -19290976, -11950533, 9897805, -25032124, -24992855, -44268504, -40987894, -47192298, -52186623, -39722007, -40298074, -43593343, -23896193, -6520454, -10312389, -52678648, -30306797, -25583643, 2771030, -23734899, -21768788, 14853065, -12768056, -31725630, -48044823, -37677981, -5150171, 8956361, -10110186, -3772424, -19212319, -17288411, -46881545, -63172318, -61542492, -75265586, -72512254, -76035261, -87890022, -110490300, -106358707, -83885171, -63159056, -71884185, -37161224, 10704074, -21920558, -7732286, 756754, -5297822, 10448726, 7779871, -37037011, -16929021, 5065185, -8828885, -14579510, -2496686, -27662333, -38685255, -57423174, -100618653, -104386680, -124712646, -122487202, -160033703, -147525281, -186835885, -170902625, -150438979, -136187941, -83483271, -65307036, -5163956, 27601294, 12674032, -853419, -18533558, 9815925, -15364230, -36077447, 6946037, -7920737, -2835943, -3741411, -4429086, -41689415, -69999889, -85900456, -127824306, -174483642, -163675666, -186351895, -174817830, -195649832, -177442119, -185729951, -225234896, -157781214, -145438120, -62284920, -40242542, 41217282, 10755923, -3748436, 11175221, 3316324, -11630965, 2030772, 19840524, -840961, -937419, 4411984, -2524192, -30423481, -69545113, -115688920, -144818574, -158545300, -114511140, -104896612, -104313739, -121312723, -120692909, -160342529, -116192758, -163661256, -104320705, -85114829, -44988766, 25942780, 6697102, 4155294, -11681592, 8684104, 15716204, -13164853, 668261, 1421702, -9783152, -225857, -15744433, -20150758, -39902821, -51752232, -74902080, -45413472, -43280505, -50167911, -46362761, -51449411, -50982859, -50937533, -64857446, -111765519, -86420923, -48053529, -35460439, -38726717, -17330559, -820465, -16130431, -29899318, -5048139, 20761169, 13988681, 21368483, 16494863, 8851115, 16239412, -4992730, 2093521, -9815261, -10935270, -9668313, -1295177, 11899385, -1990613, 49074389, 6959627, 30411478, 4786076, -15158555, -7022832, -34007736, -45888983, -25714632, -32943428, -40614195, -43263756, -64913988, -46135981, 26242463, 21323062, 19545412, 12443393, -4811028, -8723464, 33011753, 55872206, 39071981, 16410736, -14508792, -25916629, 43845013, 78415833, 84645182, 54673772, 97823292, 74195735, 1621438, -4475107, -9783733, -44409782, -10301984, -21640223, -7053462, -49365949, -66661566, -3729529, 44583611, 22787906, 16693257, 7247752, -9435278, 6132363, 20234384, 60063213, 34544364, 21109672, -12552658, 18988632, 34167189, 60125519, 61252456, 82548410, 82196683, 55959839, 20973988, -289495, -6850527, -41253861, -61733752, -38404372, -21831030, -48915889, -69567569, -20459149, 34119267, 41435435, 20345237, -21268934, -10273800, 18540047, 10791758, 40472142, 50346982, 21440744, 44173926, 42875759, 55089347, 73783256, 50975233, 99836051, 94603784, 32627653, -14585543, -49337450, -33099424, -52648380, -88300616, -90258531, -42747069, -68024471, -36670130, -24068914, 13143588, 38650211, 24657976, -19601971, -15364424, -2569050, 21649381, 47152933, 41869074, 18948779, 18954650, 1901643, 66928886, 64493783, 68768770, 97801611, 69060422, 35835650, 30426208, -52022, -41332770, -30801816, -38362887, -63296393, -84698595, -65302774, -11028767, -30673403, 15335877, 38263343, 19626783, 279131, 10522725, 19390769, 16839784, 22940410, 45562144, 39362602, 20037919, 29321678, 19229505, 11779920, 42569809, 23235170, 20764340, 40159240, 33647873, 5315043, 456863, -22275995, -24087874, -41014824, -46604879, -36160998, -33815447, -25910448, 28916592, 9935194, 18178618, 13346642, 9401349, -8590964, -1104111, 9095093, 32596856, 30240593, 17477378, 5731815, 13115929, 8503546, 30995404, -13566463, 12643494, 49824931, 23262957, 41011963, 14126769, 41388392, 8444184, 7154524, 17762620, -19184688, -8781459, 19503092, 1370608, 14459053, -1499140, 4767661, 5133409, -5879419, 12520, -1605581, -6481580, -31378519, -28882695, -21689339, 3085118, 6743476, -11416451, -5772335, -12199, 14216110, 9533723, 4230237, 33893146, 37274923, 47394235, 23258770, 22198683, 23020403, 6913238, 1060883, -1747988, 21674609, -4652834, 15015614, -4989568, 9562498, 13858039, -19195363, -4231950, -23357248, -15191316, -5254295, -9533764, -16383946, 7643179, -6119908, -12457257, -20708520, -17568314, -32990333, 11596903, -2795349, 14136015, 17493689, 38307596, 3101708, 9081555, -12439022, -9573752, 23632748, -12146864, 2112014, 16876655, 12987670, -6303740, -23897370, -42794529, -44655822, -50147582, -29003778, -43088589, -65610811, -43947604, -50775498, -38216095, -62925301, -35009187, -36792133, -33963487, 7759658, 15043165, -5721909, -10389215, 11063624, 13900151, 13648020, -1846564, -9779084, -11131944, -15699293, 10484904, -13877950, -3299141, 6441250, -13159237, -40587369, -39404895, -34093648, -62071387, -82964085, -77520855, -106491707, -78864232, -73289171, -58181155, -75380541, -57964258, -49829863, -39864533, -21498995, -31592108, -21730635, 2020356, 10394748, -15677145, 10042574, -5450705, -6378632, -2491954, -16853346, -2877013, 3695616, -20357650, -13981264, -25662806, -26923394, -29035715, -17544409, -35433311, -31599347, -60989257, -52891389, -55774581, -31723231, -53702187, -44915888, -19757852, -9715691, -10567185, -12781080, -2210876, -1274208, 967035, -4233362, 11959206, 742752, 11166529, 2763212, -12222991, -10381554, -12957097, -7532542, -3171836, -6127401, 6540368, 4163180, -16949026, -18027240, -31593613, -3586004, -22965366, -31312585, -2887900, 564802, -812058, -6591260, -16401539, 2355647, 9718771, 3071926, 7238367, -10037701, 7137658, -4919637, 1760161, 16440544, 15741840, 19762971, 7567425, 5126028, 13824694, 17708559, 10295797, -4959629, 25407698, 19513981, 22132708, 10252160, 27631965, 10688423, 6806211, 14348268, 7024884, 15212812, 11486420, 14545503, 10755718, -1440971, 4220470, 26184760, 22495214, -1142553, 2883857, -6056328, 18355569, -11377435, 15243132, 20613434, 14313277, 18376477, -4751981, 3500797, -4199067, 13239336, -3684025, 12889972, 25933383, 19004079, -2464742, 27186863, 17867275, 13454418, 14134035, -4022906, -10876019, -6514727, -6673220, -3318343, 65065, 17525710, -16728543, 22370612, 23819746, 12026644, 10055135, 16701240, 13217391, -3135881, 295674, 41027933, 21250118, 57343155, 57421219, 47509067, 48127558, 31440627, 37803922, 27384378, 18672891, 633723, -881052, -1705848, 21104012, -4340842, 19347461, 21244982, 14307980, -4891790, 11427347, -6951678, 18377678, 12551239, 1831535, 34464754, 35392880, 68631262, 46812627, 75259805, 96611753, 80995351, 85189626, 70600085, 54712925, 35876971, 6270545, 2855233, -7634094, 7865297, 6666922, 9765020, 1592042, -12495035, 18896686, 11855697, 1631570, 17219042, 5386932, 13687159, 6203886, -1474489, 36845498, 46512093, 60265586, 102730185, 77404059, 93943417, 95525950, 85396931, 68267241, 61755721, 75484082, 42900983, 14866701, -1924572, -21350069, 9586480, -17285556, 6594004, -13633083, -17896770, 13039685, 4563163, 25537040, 11134591, 18598298, 7261830, -23840612, 6902144, 24440903, 49374495, 56652509, 48313465, 79619460, 44549834, 39498180, 28457882, 37286885, 30169141, 32454442, 40409625, 72415568, 32300811, 22378469, 8740949, -19100560, 7125949, -7524862, -4686594, 10676945, -3168696, 26244098, -72203, -11068790, 7209639, -30410564, -6088386, 1465864, -470127, 19392388, -3046554, 18707966, 20157484, 19636558, 17015122, 13417085, 11552615, 28135629, 51244549, 44667117, 44243295, 56344453, 7236342, -14618183, 5945093, -10739678, -8776532, 3970099, 4461731, 26510717, -16706593, -9725493, -1131735, -19046174, -28574390, 14789253, 9112395, 30606193, -4283593, -1854510, 1546875, 14179389, 24537573, 34902710, 27297365, 63387126, 14128400, -4931043, -18991027, -9274988, -5807958, -35912961, -16742446, -2063206, 8030176, -7142468, -6108346, 10253927, 12387736, 11373872, 27932623, -13960972, -25190573, -9561765, 7346686, -9612418, 16233934, 26092065, 41101485, 39713830, 47512237, 33301551, 13070008, 11346416, -15344784, -35685122, -64113617, -18548451, -35665892, -25495082, -14647820, -20727178, 3610220, 4797428, 2906556, -2738206, -15913174, 4565445, 3090348, 32028738, 2511769, -77956, 5508704, -552487, 5940642, 34226343, 9344986, 1279065, 30218735, -1696551, -9911784, -3700599, -783979, -5994362, -29129053, 8868806, -27792836, -12037500, -27875662, -37244432, -2161545, -10931375, -20490212, -9792238, -13221789, -3837484, -26239214, 6091914, -1057606, 27867371, 24917996, -8542668, 37648175, 45605592, 13419907, -44060513, -16180661, -5622553, 525023, 35366602, 47978252, 45848720, -23341291, 8673809, -12423871, -20873258, -22586104, -24672313, -1974956, 7862986, -16677313, -10398047, -4833566, -9745326, 49891, 9166698, 23659773, 37781715, 4496728, 12480447, -25708416, -23991128, -42769846, -66253744, -72564907, -66294648, -38925819, -13861245, 7351651, -27649997, -20006405, -34102336, -12817566, -42611595, -32112766, -10758772, -12686194, 5102029, -22175319, -3942812, 14241240, -12275620, 6081731, 17609973, 23439877, 8575789, 20625073, -14239538, -32873750, -59964314, -101460554, -117092647, -112919383, -134823754, -73570922, -55630479, -49209952, -98418139, -88589743, -57704322, -61653383, -18842049, -10888852, 17650967, 4074014, -1731848, -16117617, 14709705, -4619973, 13169827, -22605436, -38043946, -15356254, -29904816, -66911943, -86794466, -70957802, -130905122, -97518384, -93633451, -91753364, -89883059, -75932376, -89037135, -96798971, -104719549, -70878074, -64075135, -58688812, -23382377, -2809346, 36453672, 40904555, 1411792, 8318901, 3259813, -15698362, 2291029, -11950667, -45896083, -77007346, -96985184, -79837278, -113894783, -154083684, -164836645, -132177070, -89201108, -49679901, -29757349, -59947871, -117995352, -137167603, -135013431, -96132174, -88354498, -48078254, -19026086, 48495915, 57093155, 33285987, 12276693, -10859813, -4296587, -13919061, -3232116, -24440190, -49347393, -60377840, -98065190, -108262427, -120757319, -163738877, -166688606, -138119787, -82720235, -66480339, -21317327, -52669354, -98473072, -166570336, -152032509, -50463434, -54148529, 5793192, 24275921, 98543324, 70546187, 66681869, 34335729, 27899152, -16794231, 13008555, -380818, 5746095, -12820530, -49521960, -42540956, -75140908, -100341335, -158474863, -153151125, -152033389, -127803117, -62464274, -22407478, -24992922, -85945539, -115390442, -81389874, -21048486, 30960217, 62292583, 59641093, 75975560, 92217393, 65870449, 34620810, 32623347, -3221520, -14513399, 1065862, 16451675, 9405963, 14191886, -348196, -33531498, -68811581, -77949017, -95230140, -79302765, -99652164, -38088940, -30481128, -23523465, -42753074, -69612078, -49376775, -20244619, 8015752, 60333658, 63881531, 68283446, 76150447, 72218142, 29846663, 4775971, 16046546, 8365544, 2254922, 21646412, -10648905, -11046688, 8955211, -33582527, -46143170, -68180300, -60669750, -73904455, -53094719, -39174162, -26350863, -46736937, -49788184, -41625563, -23741191, -30877635, -13344606, 27377907, 36645014, 49888011, 53853385, 70372492, 29067721, 23641959, 8169996, -11663119, 6833157, 380808, -5406308, -13495736, -27327841, -21006521, -32138333, -26159508, -32734819, -40790997, -2337974, -28869526, -23895737, -7565817, -16385313, 25053551, 43812949, 18824616, 56725916, 106473230, 92225693, 72421655, 70206366, 58065969, 41474696, 9314411, 4437810, 1103787, 2898392, 17161122, 5368821, -35581227, -26579993, -5672181, -5106863, -7945578, -27153874, -34000415, -28556170, -38716659, -26348606, 2333142, 16045427, 42961344, 47379799, 32732118, 65183543, 92531256, 81469685, 84241703, 46354607, 26238097, 39363034, 16375203, 10758308, -5743479, 22372847, -3574521, -5990493, -28062580, -41836713, -51601388, -30163242, 1325673, -25669957, -17137267, -8337904, -43567356, -32039054, 9625395, 15520724, 47768824, 69002457, 62853739, 55841759, 81350267, 87390170, 58833607, 47608070, 39181713, 35761762, 32853644, 13945985, 12113187, 11059106, 8793561, 38522713, -5023481, -26053149, -1101647, -6455788, 1389236, -36761779, -51387470, -41677639, -69862999, -66592120, -35934024, -7290150, 5707440, 44771671, 42601690, 18887652, 55143185, 50974704, 64914085, 31103335, 13648941, 31347625, 21331288, 8357760, -12815013, 5385482, -11938919, 2529493, -8488007, -21080904, 11742808, -3297565, 14272924, -29824276, -49755793, -71352050, -86949922, -99102147, -65729253, -63691132, -20534281, 7603831, 37293144, 30001286, 10475336, 36642388, 97865283, 69931060, 3076254, 24628384, 21873554, 13127358, -1136399, -6607612, -21170424, -35814740, -39962769, -59697073, -42374138, -3182681, -12853899, -16856933, -16086664, -7503860, -21791700, -28061556, -17270578, -17422732, 24457388, 31582572, 12535487, -8197701, 7446467, 9538712, 11136938, 38052842, 2471018, 5147916, -5656974, 26349310, -16803060, 6991924, 7569330, -30138846, -34986358, -44397090, -57509776, -60898717, -65033443, -79329513, -71500964, -70099503, -25041871, -12211900, -1569692, 9694709, -508236, -87956, -5069093, 144382, -188422, -922273, -2317590, -7946567, 3384341, 16307594, 24098041, 26646931, -3097528, 8409124, 6637319, -20387808, -1002403, 3982434, -8465775, 482728, -1168874, 5134842, -10135164, -5860962, -25980104, -31188285, -5187895, 5825320, -8149811, -2114695, -17586671, -973713, -13662183, 7635874, 7687580, -5912830, -13097216, 5503967, 11078021, -3823846, 15747031, 3814914, -2338348, 7232919, -15096024, 17979946, 11444191, 12105579, -10575565, -3242186, 16164625, -123651, -8858945, -8053849, 4086983, 4879451, -5078403, -11964085, 16284959, 5507100, -7735810, -3398044, -12233889, 9104100, -13478891, -2549279, -9987699, -7335828, 2792956, 28641228, 32276202, 26991326, 17770218, 12544230, 21853911, 15270271, 2112841, 214379, 17969806, 4750472, 889911, 27388697, 11512949, 1181317, 9930895, 31745691, 1386604, 32092839, 21597700, 1728938, 8198856, 18749099, 26588082, 12221544, 22731924, 8576854, 27762761, 19686639, -1463750, -11100647, -15260474, -9181509, -7183003, 4436411, 13752852, -1196584, -3534999, -582107, 22196045, 14681256, -13375069, 6626735, -13583354, -12351442, 9292886, 3506924, 16077027, 1642259, 8517257, 3249656, 16042186, -9810274, -15891209, 5317712, 15198280, 26206343, 11257070, -2917791, -14516479, -6775128, -509093, -5495873, 15303009, 25289457, 19191075, 33797700, 33724520, 34694880, 359911, -22843657, -29488783, -25656957, 7779534, -10760686, -31448510, -27089734, -10630925, -2011998, -3742961, 11076727, 14825482, -3002534, 11619375, 35392888, -2081101, 10107177, -12278715, 7874953, 23453211, 189654, 9644878, 15335968, 20443687, 66916518, 48937269, 40945791, -33047680, -43159306, -38466014, -36712453, -43116603, -35605066, -47269873, -77627286, -61639249, -19157182, -7657508, -11646080, 13732161, -2986739, 22861019, 5717212, -2794987, -6262556, 9225238, 29856151, 17697783, -292789, 23155300, -2946707, 10043745, 49376078, 52600265, 26163753, -4802180, -26383746, -56968302, -55843808, -23526501, -39718248, -42399786, -56476783, -55440094, -54266393, -24531936, -18432956, 94772, -15445591, 28522249, 33607181, 12432705, 15449209, 25686156, 25379395, 35288431, 17966520, 6529278, -4996938, -2458057, -2783255, -5571429, 16524550, -3424664, 1992246, -24352714, -5791723, 11339610, -21596102, -64834334, -51207278, -44035878, -45334578, -68566687, -56974072, -27489625, 12067457, -6409882, 8596830, 12244431, 1447960, -3389952, 2523265, 21589786, 15400754, 8309787, -28070534, -56698538, -14755240, -26964894, -32534420, -14708877, -4730768, -52871436, -35349119, 19218720, 5343761, -32180898, -31507090, -31227332, -33730544, -38070105, -62842481, -8676529, 1545932, 14199193, 4193364, 23148779, 24493095, 25352640, 9718196, 10529625, -8503323, -42147163, -50315388, -36026757, -40332396, -35523511, 14440442, 19194784, -4323256, -38825471, -32018811, -1241458, -2266308, -20204635, -27981767, -19779244, -14441607, -61378494, -74951284, -27251491, -807173, 30634116, 33978578, 5838685, 36031310, 14862514, 14554508, 5902288, -34131013, -68280868, -86144388, -85657746, -46912462, -35401281, 10154172, 11574486, 26979338, -9763884, -63386500, -36326528, -33307508, -38000885, -35742138, 10179655, -23920126, -43425325, -58577914, -13842837, 11648696, 5819743, 12098400, -12292730, 9854975, 25976708, -12414789, -12810445, -29674619, -95045015, -117937826, -122553766, -62132295, -35690594, -35402324, -23442695, -24480583, -20561324, -54612897, -14446051, 8773327, -14297444, -21633554, 22630144, -12056753, -26089031, -19368237, -38266744, -5918953, -5868623, -2549933, -17445507, 16685510, 22748455, -6736404, -23512892, -39132114, -125669181, -161266848, -137184009, -99368609, -74461363, -65676048, -81535675, -33720925, -39291549, -24254581, -46201251, -8067945, 36856655, 11690365, 21829545, -6149868, -15540925, -29932039, -17129444, -14186937, 23839150, 23184847, -16607091, -995815, 5586646, -19470716, -50811887, -125125453, -172141954, -192631900, -172536209, -173071489, -159617454, -118991554, -138543576, -84679581, -74165098, -46576649, -35337478, -15071409, 45947548, 29100277, 32731771, -10442583, -35767715, -5308731, -16374554, 1446544, 29834813, 7913132, -22030395, 3434531, -29977409, -51639985, -96350506, -161811918, -199950993, -220518649, -190484241, -202792287, -201907173, -179808870, -154183313, -102465577, -108502872, -86715311, -36084384, 970300, 33191569, 35530325, 34494646, 5629210, -27328521, -20927917, 6520569, 7563399, 11536075, 28374540, -11812513, -13437909, -43568030, -58004703, -113612019, -181020662, -177280769, -203238115, -161335900, -160047725, -150210798, -185452908, -142802730, -97607866, -81792705, -78790911, -27387226, 3021048, 52251685, 42252149, 12267787, -25312236, -21668643, -21985676, 27985157, 38133539, 16162859, 23657810, 3594051, -15212886, -1814820, -60713783, -87187082, -142780513, -157019973, -134845838, -137578532, -100053675, -114973724, -94445124, -55077065, -27735662, -59272733, -32249022, -6432356, 42403072, 43412186, 11851156, -15297278, -29947296, -52912477, 5335803, 35029929, 37349816, 321355, 37299100, 6152261, -13576485, 14671550, -10543756, -50505724, -93422584, -80558114, -94282269, -52660145, -46980411, -41935168, -18674094, 19149857, 17306665, 6312089, -12039210, 9013611, 8176887, -13007822, -7119480, -38461916, -80559306, -60352445, -48790541, 11053695, 31880423, 15021667, 20180775, -13635270, 20533511, 22924820, 23729257, -9111820, -16934725, -25468603, -22178411, -38704570, -7898799, 14695002, 45664933, 61992712, 65988086, 4676458, 6341879, 42183504, 5044077, -39449621, -32682225, -48914626, -67548744, -113969624, -49700450, 32609537, 46629325, 21616196, 11545913, -26067505, 13850924, 7088629, 55609167, 40538900, 31043841, 24962649, 2706656, 12723592, 84169000, 44544168, 100428633, 77571534, 79361476, 23251656, -11510353, -7311152, -11191757, -55966187, -58442187, -65438576, -82069390, -90832531, -58154553, 7215885, 34130543, 17112864, 19126045, 10809445, -2849475, 11072283, 35158791, 50938342, 54216154, 49259186, 52140638, 75720415, 85047081, 90115219, 89687631, 114575140, 67226790, -3755430, -53053554, -37150018, -34042027, -52986212, -96171692, -102641240, -107887983, -100580916, -50563123, 29817643, 34421798, 26594885, -822475, 13543400, -3884422, 13838382, 50306857, 82880139, 62185436, 57710931, 51896494, 79742603, 102031089, 78930363, 89463331, 69913499, 40333256, -36855552, -38119882, -65726258, -76385818, -75977899, -116877601, -120462462, -109132022, -57863984, -15787246, 32181449, 27549125, 7385067, 16817085, -5849648, 24232065, 12017578, 53549923, 45271121, 79680875, 62195566, 76082446, 79455823, 22098500, 20922586, 8575404, 3876813, -5178029, -28418569, -19228118, -43741506, -101712540, -107927300, -94643086, -110200226, -110053562, -82925037, -32175004, -22392394, 7812084, 32204997, 15396009, 19271398, 20138295, -2555248, 27214261, 55690475, 57790034, 43442562, 59462968, 18557772, 26512753, -32080438, -27233060, -30005511, -27396427, -36722317, -34917668, -42543631, -61283093, -37494730, -48752386, -44969052, -79501942, -48960481, -16188337, 21247141, 3881582, 27217219, 33055544, -11069110, 15498053, 12497237, 19682247, 31234479, 18670145, 10009651, 13687499, -12675393, -6383794, -74977867, -60109381, -53985920, -49485046, -69169119, -81713974, -49609561, -26949104, -5278716, -50658911, -63622497, -48558824, -15575093, -7430793, 6662386, 836897, 10068068, 2737134, -1658328, -9215618, 21526920, 41192353, 13124465, -4910612, -9864835, -49171656, -45522973, -103905737, -98299116, -104248352, -98808795, -132781908, -107754752, -90772405, -64181283, -28202441, -35560388, -30108888, -20544305, -2005962, -6672080, 732658, -5240145, -15279355, 7631978, 10453072, 1105357, 1151740, -10519036, -894330, -16059907, -42141892, -50514225, -80900110, -98134018, -126025051, -105315238, -128945962, -152450204, -189639330, -149325088, -115978636, -63632973, -34174226, -53131036, -64461187, -36692049, 8473947, -8660262, -3158814, 2489297, 5943239, 3006703, 6414398, 6331435, 6667351, 3697469, 2315778, -262281, -31639922, -52103207, -108351029, -123005353, -116299547, -113007717, -144999713, -175197437, -153366104, -98872416, -64389937, -42464588, -16276890, -26605468, -11070684, 1263240, -16071534, -30784912, -8034318, -12390147, -8560671, -1828238, 34325030, 7742313, -8486207, 5339913, -22530649, -34154840, -26436128, -49859989, -36396734, -39093498, -47518998, -63781537, -50094575, -68136021, -63416384, -59305314, -38328268, -8831974, 3294763, -26004065, 3590931, -1671982, -13383963, -18347638, 1989006, 2724203, -8683673, 5645951, 1015775, 9088464, 12273061, 20910330, 15777610, -4177339, 5606391, 10998677, -947402, -14127616, -6801179, -29802838, -15998719, -3161205, 15259839, -4094680, -13786289, -4892597, -7111662, 2515388, -15619974, -11077341, 11004947, 20723054, 12502136, 3858138, 17842988, -16398875, -1445776, 13700573, 12994009, -7465406, -2304679, -17142503, -2476274, 3673519, -1128179, -11073591, -21896558, -3666379, -15029767, 2681176, -16432565, 9728665, -18135412, 816724, 4036572, 12310972, 13071296, -4069474, 7969476, -6498984, 8162851, 11297069, -7700150, 7784080, -5313188, 8677823, 16036754, -17313119, -11852383, -15701517, -13193332, 12238269, 8129948, -10932537, 5815758, 14121419, -9692895, 11105785, -6144546, 2676018, -16513057, -9807334, 2302941, -13972164, -8888041, 8304323, -10008575, 13655555, 4463091, 7012417, 7773894, -6247290, -14708484, -14730855, -14483837, -8771670, 5316252, -13586464, -12470534, 6310887, -659650, 12515936, 11698802, 14408983, 419885, 25146583, 30989595, 637579, 1709079, 1468060, -15853535, -7214660, -5357920, -293917, -12243577, 3975933, -11933532, -13861530, 15207736, 13521837, 16583232, -10484596, 15164403, -15731473, -9687955, 6733977, 24533276, 13973508, 51467504, 38983390, 69189504, 67367002, 78276612, 55275358, 45355417, 9955226, -26076237, -19093011, -34164231, -25309451, -13169033, -25206029, 4111133, 9302767, 14683652, 721552, -10426514, 12793054, 10615652, 16183572, -18839289, -12789003, -12365052, 7151621, 67825608, 45705769, 97400174, 94884776, 117662124, 92765249, 63223667, 31244908, 39162636, 2973618, -36440786, -76183513, -53329028, -58508739, -60754534, -38104553, -9310599, -28934468, 5393851, -3604344, -2217748, 16322004, 693035, -7905829, -13788602, -10759464, -399770, 17493296, 64245433, 52784812, 61402954, 74073896, 55661500, 53326052, 16157826, -2202030, -688168, -1279888, -409992, -20690223, -30105086, -88399731, -101684108, -72440013, -76359481, -30495171, -2598001, -10171450, 7010098, -15277470, -7024687, 7686513, -7434614, 5746251, 9159468, 3650840, 35151165, 17378952, 31556223, 33831500, 19391140, 38771018, 6458692, 27517775, 46696179, 39182369, 15907992, -15949106, -49770977, -92138067, -121215194, -87421663, -97978942, -53649899, -24199514, -24999170, -6673798, -14261734, -681340, 1416460, -41708544, -1613296, 5423550, 25921093, 19852674, 15612826, 18925963, 24246104, 15883839, 27385952, 46313569, 43328758, 47546852, 37185535, -5533888, -26064040, -66165343, -103248477, -157553107, -148238078, -105456635, -49254712, -13420899, -9318626, -9979556, -2805038, 9079879, 9636854, -19404517, -24228441, -42233612, 8533903, 17937377, -2933281, 14248786, 37187818, 21196235, 46109460, 26071912, 47257654, 27557673, -9743409, -20734971, -40509257, -79505883, -78294329, -153790608, -159599483, -134824976, -94273292, -49067914, -24884636, 7069190, -9476238, 14980651, 15302571, -11781693, 10081922, -53837, 27371049, 11789379, 28846752, 19182876, 32596905, 29124780, 45099471, 38355555, -438350, 9019013, -18165885, 378075, -76538578, -87700427, -95012076, -159057871, -142350540, -88673294, -79420619, -31478822, -835229, -14562438, -10638051, -19064920, -23539051, -8322906, 19329404, -4337218, 3886359, 20294139, 9858614, 35402376, 36986809, 16634736, 35306480, 31523056, 4287877, 17001212, 27324930, -26575971, -64904250, -87057129, -127530038, -117408536, -100705869, -86597897, -58082346, -24665654, 4054742, 5750319, -5078863, -9758161, -28797917, -5242195, 25423113, 44532772, 47583360, 36967218, 38094580, 38296286, 42500142, 14779335, -22721602, -45540426, -46255428, -33231322, -70442446, -95365383, -102576092, -126585707, -95892832, -126320034, -72582401, -38966548, -20162655, -13932735, -68266, -2836460, 2342744, 9905471, -11927114, -5737775, -504650, 48315324, 45110662, 27479574, 35951864, -6871388, -22923462, -48091315, -60570430, -117187187, -112912767, -105937839, -119372793, -119948812, -136108205, -114359215, -125855625, -99538326, -58011841, -23402320, 1006210, 6436397, 27911602, -9554664, -2456681, -12294983, -19891301, -37527531, -25620271, 1445244, 10944166, 14705892, -3389582, -27744656, -53174216, -83539210, -98777257, -122855730, -129284993, -149531618, -156921417, -104805604, -121132217, -119096473, -124023773, -79233676, -19428726, 7079832, 50263237, 62637433, 53312160, 37261706, -7106245, -22333479, -30747937, -70898287, -79865240, -94638042, -38029712, -30499605, -18287653, -31106347, -23693908, -19297892, -17818941, 