{"x": [[[0], [0], [0], [0]], [[0], [0], [0], [0]], [[0], [0], [1], [0]], [[0], [0], [0], [0]]], "head": {"W": [[[[0, 0]], [[0, 0]], [[0, 0]]], [[[0, 0]], [[0, 0]], [[0, 0]]], [[[0, 0]], [[0, 0]], [[0, 0]]]], "b": [0, 0], "a": [[[0, 0], [0, 0], [0, 0], [0, 0], [0, 0], [0, 0]], [[0, 0], [0, 0], [0, 0], [0, 0], [0, 0], [0, 0]], [[0, 0], [0, 2], [0, 0], [0, 0], [0, 0], [0, 0]], [[0, 0], [0, 0], [0, 0], [0, 0], [0, 0], [0, 0]], [[0, 0], [0, 0], [0, 0], [0, 0], [0, 0], [0, 0]], [[0, 0], [0, 0], [0, 0], [0, 0], [0, 0], [0, 0]]]}, "backbone": [{"W": [[[[-57286732, 118761860], [102379486, 56526773]], [[25273794, 43728206], [247079626, -380019188]], [[146382958, -61924469], [-80299199, -51054761]]], [[[-255092025, 69497235], [161596209, 59964050]], [[-139665008, 276268691], [-342807502, -247665375]], [[2133298, 282474220], [376137942, 291518509]]], [[[-60954038, 278922141], [476307988, -116394855]], [[62239558, -1599523], [-234585673, 71307383]], [[-248799816, -49714196], [-65391421, 128341839]]]], "b": [243277684, -5673014], "a": [[[0, 0], [0, 0], [0, 0], [0, 0], [0, 0], [0, 0]], [[0, 0], [0, 0], [0, 0], [0, 0], [0, 0], [0, 0]], [[0, 0], [0, 0], [0, 0], [0, 0], [0, 0], [0, 0]], [[0, 0], [0, 0], [0, 0], [0, 0], [0, 2], [0, 0]], [[0, 0], [0, 0], [0, 0], [0, 0], [0, 0], [0, 0]], [[0, 0], [0, 0], [0, 0], [0, 0], [0, 0], [0, 0]]]}, {"W": [[[[254350215, -32147642], [96032858, -236847907]], [[135044664, -251137525], [210469484, 2504243]], [[-407776207, -89654334], [-168904200, -24160856]]], [[[41231353, 204072312], [-272244334, -111759998]], [[426643014, -194306523], [80652952, 317598373]], [[169670105, -180867255], [-155860320, 163367659]]], [[[-1255507, -312234044], [35431240, 295747042]], [[-38496114, -273831964], [284544587, 113873340]], [[-114670575, 156569421], [33928551, 121777177]]]], "b": [190168381, 116498806], "a": [[[0, 0], [0, 0], [0, 0], [0, 0], [0, 0], [0, 0]], [[0, 0], [0, 0], [0, 0], [0, 0], [0, 0], [0, 0]], [[0, 0], [0, 0], [6, 0], [0, 0], [0, 0], [0, 0]], [[0, 0], [0, 0], [0, 0], [0, 0], [0, 2], [0, 0]], [[0, 0], [0, 0], [0, 0], [2, 0], [0, 0], [0, 0]], [[0, 0], [0, 0], [0, 0], [0, 0], [0, 0], [0, 0]]]}], "tail": {"W": [[-132959083, -118531562, -329652816, -264469504, 52381743, 174369216, -185415685, 221723706, -309684753, -161587641, 86690351, 230051488, 304787576, -137462780, -40990170, -9586032, 191044495, -259335011, 13316132, 108754531, 18873189, -9187305, -169912294, -97521044, -360360384, -95218539, 93004204, -438288480, 33774301, -114596628, -367767304, -127350911], [106872514, 86906105, -339604646, 51971678, 144296482, -301305175, 49795374, -291446805, -9619392, -185699403, -577240825, -838775694, -166491061, -61757192, -482105821, 190415069, -17568311, 137587070, -118141405, 59751086, 103429988, 348410279, -315983117, 51823962, 261006892, 90955369, -367747992, -438777149, 61065890, -573218286, -341378987, -341565996], [84586658, 220119148, 413487434, 118102245, -3371123, -241652369, 79619996, -465010971, 193613485, 53009324, 59961818, 133515462, -24194283, -202421293, -60332894, 151301175, 78452632, -111758642, -360508323, 416148335, -63250080, -235482112, -162123427, -74503317, -96977457, -27277926, -137688592, -465414107, -36199689, -299759775, -374631047, 34876186], [-77235796, 320090711, 119967423, -11287929, -23759527, -230053186, 160826370, -77907294, 11117218, -511097372, 54231685, -299034774, 165441915, 113857001, 83571330, -280505091, -123803809, 156115592, 158333525, 44222914, -295424134, 307683825, 52885126, 216162920, 50792627, -204042643, -42920999, -6842434, -84301613, 201534107, 13304414, 92974119], [-213347256, -365664691, -492343932, 9895936, -108932972, 102926336, 25708729, -175482869, 10193259, -93785308, -4037942, -167839780, -354949832, -49965620, 189701065, -188105509, -69353625, -136126310, -4379968, -54994281, -47385316, -104635723, -251344055, -67727819, -120240770, 94060071, 129152760, 79590648, -213578701, -214419350, 23465125, -123619609], [-12183776, 48274063, -132888019, 13292164, 150172547, 90075918, -116984963, 189688206, -191988826, -295047671, 119021609, -123020820, 166352168, -54668881, -10046669, -210724756, 127549380, 176998869, -30942338, -424223363, -110973887, -87948337, -10822441, -161537111, -8928200, -199327394, -93962006, 175649479, -75699240, 80260955, -104655355, 262389153], [101500995, 276752979, 319925666, 38057510, -242826551, 63386165, -178372145, -256862044, 17776089, 92790410, -146749362, -106839158, -185147002, -462321937, -5201103, -278091371, -39858036, -361230493, -87399080, 278201252, 274071962, 138617411, -31655695, -302558064, -602406681, -82844123, -80450490, -269072711, -170267045, 21005269, -398269773, 113134965], [-102216601, -162163347, -173193753, -151443675, 450861365, 30961528, -38902879, -214684963, -229314595, -410782069, 130688980, -223487869, 275021106, 34903660, -74892886, 113345638, -81554256, -105992526, -44880837, 16974229, -220136076, -9985576, -182823822, 169306502, -91909364, -185445443, -202501684, -93974896, -265133798, -52212112, 257061571, -16238460], [73186137, -316621184, -218109071, -130264342, 57873614, 33832297, -92185006, 183467686, -248305202, -77053860, -24708649, 42975459, -164725989, 119534254, 19673277, 140735254, -165327966, 96932292, -179024071, -170221478, -190114334, -375269949, -31100864, -75018719, -152706042, 245159924, 195285678, 933986, -194341436, -78684293, 67347132, 19980138], [-376272649, -550139070, -336728811, 18257806, -42976104, 140474588, -66494718, -161339149, -458711386, -165701270, 94760552, -248096228, -49266949, 6175659, 154564813, 45050189, -35177898, -52258037, -32215241, -194749817, -215989053, -262660831, 1450819, -116708450, -65747552, 31517208, -12102121, 251008928, -288005292, -210146531, 185197756, 83460957]], "b": [-105413646, 181153327, -211477637, -81423528, -159139946, 252492696, -116745941, 106783204, 78222096, 84572583], "a": [-1017676472, -3310936927, -1005489706, 607581496, -1056436181, -431390792, -3672446250, -182032287, -1998474359, -1116807937]}, "scale": 1e-09, "label": 3}