{
  "x": [
    [[0], [0], [0], [0]],
    [[0], [0], [0], [0]],
    [[0], [0], [1], [0]],
    [[0], [0], [0], [0]]
  ],
  "head": {
    "W": [
      [[[0, 0]], [[0, 0]], [[0, 0]]],
      [[[0, 0]], [[-1, 0]], [[0, 0]]],
      [[[0, 0]], [[1, 0]], [[0, 0]]]
    ],
    "b": [1, 0],
    "a": [
      [
        [0, 0],
        [0, 0],
        [0, 0],
        [0, 0],
        [0, 0],
        [0, 0]
      ],
      [
        [0, 0],
        [0, 0],
        [0, 0],
        [0, 0],
        [0, 0],
        [0, 0]
      ],
      [
        [0, 0],
        [0, 0],
        [0, 0],
        [0, 0],
        [0, 0],
        [0, 0]
      ],
      [
        [0, 0],
        [0, 0],
        [2, 0],
        [0, 0],
        [1, 0],
        [0, 0]
      ],
      [
        [0, 0],
        [1, 0],
        [0, 0],
        [0, 0],
        [1, 0],
        [0, 0]
      ],
      [
        [0, 0],
        [0, 0],
        [0, 0],
        [0, 0],
        [0, 0],
        [0, 0]
      ]
    ]
  },
  "backbone": [
    {
      "W": [
        [
          [
            [-79494409, 271451890],
            [145826072, 137402177]
          ],
          [
            [-136684358, -121783659],
            [115769446, -153684363]
          ],
          [
            [-60354725, 649128914],
            [306885749, 139573872]
          ]
        ],
        [
          [
            [79312474, -105281264],
            [269726396, -436828375]
          ],
          [
            [-134759173, 724516273],
            [-204360873, -87433487]
          ],
          [
            [46893314, -65787256],
            [-240171969, 94181351]
          ]
        ],
        [
          [
            [185793981, -126157567],
            [-79150602, 30764461]
          ],
          [
            [94570860, 637772679],
            [242532715, 413927972]
          ],
          [
            [-182525918, -210048497],
            [-53069405, 231544510]
          ]
        ]
      ],
      "b": [68699993, 55323534],
      "a": [
        [
          [0, 0],
          [0, 0],
          [0, 0],
          [0, 0],
          [0, 0],
          [0, 0]
        ],
        [
          [0, 0],
          [0, 0],
          [0, 0],
          [0, 1],
          [0, 0],
          [0, 0]
        ],
        [
          [0, 0],
          [0, 0],
          [0, 2],
          [0, 0],
          [0, 0],
          [0, 0]
        ],
        [
          [0, 0],
          [0, 1],
          [0, 2],
          [0, 0],
          [0, 2],
          [0, 0]
        ],
        [
          [0, 0],
          [0, 2],
          [0, 0],
          [0, 1],
          [0, 0],
          [0, 0]
        ],
        [
          [0, 0],
          [0, 0],
          [0, 0],
          [0, 0],
          [0, 0],
          [0, 0]
        ]
      ]
    },
    {
      "W": [
        [
          [
            [223596469, -12196984],
            [94066814, -354122818]
          ],
          [
            [32496866, 228699833],
            [-254616678, -361371934]
          ],
          [
            [-124816686, -233958110],
            [-107449852, 662845254]
          ]
        ],
        [
          [
            [137796223, 123084292],
            [341570526, -181694284]
          ],
          [
            [196817309, -199821383],
            [-165485099, 751697719]
          ],
          [
            [178121224, -227504805],
            [214177281, -116862990]
          ]
        ],
        [
          [
            [-151222408, 26019676],
            [-27409345, -27823042]
          ],
          [
            [-22492616, -104866348],
            [107398413, 365472257]
          ],
          [
            [-26980028, 182427064],
            [12970539, -73866159]
          ]
        ]
      ],
      "b": [-149544761, 116728298],
      "a": [
        [
          [0, 0],
          [0, 0],
          [0, 0],
          [0, 0],
          [0, 0],
          [0, 0]
        ],
        [
          [0, 0],
          [0, 0],
          [0, 1],
          [0, 0],
          [0, 0],
          [0, 0]
        ],
        [
          [0, 0],
          [0, 0],
          [0, 3],
          [0, 0],
          [0, 0],
          [0, 0]
        ],
        [
          [0, 0],
          [0, 3],
          [0, 0],
          [1, 0],
          [0, 1],
          [0, 0]
        ],
        [
          [0, 0],
          [0, 3],
          [0, 0],
          [0, 1],
          [0, 0],
          [0, 0]
        ],
        [
          [0, 0],
          [0, 0],
          [0, 0],
          [0, 0],
          [0, 0],
          [0, 0]
        ]
      ]
    }
  ],
  "tail": {
    "W": [
      [
        42216700, 48245456, -109856278, -17159460, 175361037, 13410357,
        74750230, 107119597, -113972776, -201644748, 148845688, 23533186,
        121037200, 43714616, 30283026, 107344180, 168062195, -173359171,
        119796209, 4498715, 21670230, 98546974, -62684238, -207825899,
        -267527938, 173222229, 66677943, -141043812, 116154730, -74520580,
        -214653447, -78659110
      ],
      [
        75699009, 76130956, -84355108, 17104395, 136437774, -154591024,
        181318820, 32286003, 107070521, -165633366, -340649575, -233469754,
        -81018135, -128291279, -127659947, 52006323, -301952094, 102093533,
        49942035, 227132440, -171006262, 225828320, -13679036, 188511163,
        185361445, -38234688, -31228021, -525821388, -351053387, -53353488,
        -86788855, -76766409
      ],
      [
        -47214523, 6795422, 128597364, 133226186, -151060104, -182334885,
        -65778315, -68046890, -140229166, 20948788, -33911150, 99426500,
        32281473, -70870526, 150405720, 162542373, -63910969, 114946507,
        -191634834, 169916257, 136020973, -46258830, -277581900, -120746978,
        -15113328, -8404138, -133996636, -18649457, -228753597, -2684818,
        58407117, -84336378
      ],
      [
        -125310004, -23718022, 96028760, -119081676, 142247647, -68542518,
        199264020, -180123419, 40168468, -274561614, 156888351, -107174911,
        106475055, 30458704, -27085694, -36918968, -318388075, 120062113,
        -75575516, 10255223, -524474084, 241085023, -9075576, 138604149,
        305886984, -233333245, -192243904, 72748065, -150369063, -4690254,
        -190387085, -137109637
      ],
      [
        87585740, -130615398, -68045817, 129955903, 135178193, 194349155,
        10334166, -131483167, 171614558, -14686165, -67919932, 7959569,
        -123656102, 70131116, 120330274, -157533303, -92780881, -11537462,
        38183413, -40270645, 6959412, -21530956, -340145588, -13079356,
        -181351766, 85342981, 163007945, 15235489, -81793942, 28424822,
        132454604, -76703101
      ],
      [
        79132155, 135344625, -15767606, -24120050, 151876599, 183855966,
        -134013042, 184781507, 27749371, -164724171, 103438325, -144739911,
        163265064, -91290653, 34727838, 41410781, 70161544, 112824321,
        -24277985, -94188035, -242847413, 18146994, -43481681, -90767279,
        -53706694, 127794817, 40696263, 25016660, 106351145, -87574385,
        -181763440, 151797384
      ],
      [
        57689570, 20275084, 102925099, -85428871, 69550574, 91001309,
        -187727973, -88393956, -71860440, 67343712, -54387622, -76887459,
        -26019476, -120853655, 13120820, -59545610, -728156, -72415300,
        -85038409, 172690675, 327176005, 88154420, 60525499, -388718337,
        -422403663, -97904868, -55187967, -63812315, -228720009, 166497022,
        48610948, 42490873
      ],
      [
        -158094108, 65864563, -159093335, -114666924, 75748831, 29253157,
        -82784027, -4372850, -118336320, -213174462, 164091304, 16062848,
        150489360, -72661825, 21684108, -63717961, 132644072, -242641300,
        -93153045, 54761838, -305561841, -132552236, -295945644, 435904384,
        -94468273, -65953821, 23043834, -78677326, 88270798, -233056590,
        271037936, 46416532
      ],
      [
        -57042096, -120235033, 67786269, 108162642, 166811153, 66537626,
        51812697, -1895450, -101779401, 20912182, -4939217, 26514199, 72568938,
        100021511, -154365569, -9022237, 25228729, -117975697, -174510062,
        -36187742, 119640552, -259626836, 116432585, -127470553, -54389451,
        38204994, 183118701, -162185878, -345452666, -139405385, 11521323,
        -34542751
      ],
      [
        -185510606, 164019689, 2260340, 12756048, -77790231, 98208942,
        -22587890, 162901923, 17725714, -96254170, 169183910, -21650134,
        139727369, 23021990, 185322717, 87507628, 146576241, -77773429,
        -4643944, -147852600, -1909855, -316334993, -105312847, -10306479,
        -248953238, -20132639, -23195799, 148176253, 150533140, -191766560,
        123054914, 98703742
      ]
    ],
    "b": [
      -29246794, 107322022, -23797758, -37780978, -21676222, -73993027,
      -52472893, 51807720, -39097272, -43205824
    ],
    "a": [
      -663782775, -1172026634, -1032067298, 1062898516, -811353802, -77677190,
      -2499625444, 5343873, -2672054290, -625768005
    ]
  },
  "padding": 1,
  "scale": 1e-9,
  "label": 3
}
