{
  "x": [
    [[0], [116], [0], [0]],
    [[0], [0], [0], [0]],
    [[0], [253], [0], [0]],
    [[0], [0], [0], [0]]
  ],
  "head": {
    "W": [
      [[[0, 0]], [[0, 0]], [[0, 0]]],
      [[[-1, 0]], [[-1, -1]], [[0, 0]]],
      [[[0, 0]], [[0, 0]], [[0, 0]]]
    ],
    "b": [0, 0],
    "a": [
      [
        [0, 0],
        [0, 0],
        [0, 0],
        [0, 0],
        [0, 0],
        [0, 0]
      ],
      [
        [0, 0],
        [8, 0],
        [0, 0],
        [14, 3],
        [0, 0],
        [0, 0]
      ],
      [
        [0, 0],
        [2, 6],
        [0, 32],
        [28, 3],
        [0, 0],
        [0, 0]
      ],
      [
        [0, 0],
        [19, 0],
        [0, 0],
        [31, 7],
        [0, 0],
        [0, 0]
      ],
      [
        [0, 0],
        [18, 17],
        [0, 35],
        [31, 0],
        [0, 0],
        [0, 0]
      ],
      [
        [0, 0],
        [0, 0],
        [0, 0],
        [0, 0],
        [0, 0],
        [0, 0]
      ]
    ]
  },
  "backbone": [
    {
      "W": [
        [
          [
            [-113187179, 43175310],
            [215677425, 20211753]
          ],
          [
            [-259349823, -26610805],
            [125829533, 74189000]
          ],
          [
            [-81294551, 136377364],
            [269754410, -63467398]
          ]
        ],
        [
          [
            [-71838655, -135451347],
            [259995520, -211451009]
          ],
          [
            [1063267, 254553288],
            [-105284207, -23594743]
          ],
          [
            [32374226, 16663168],
            [-156404078, 181063816]
          ]
        ],
        [
          [
            [57039313, -218468487],
            [-151808113, -1000890]
          ],
          [
            [95603600, 172279641],
            [253409564, 203065634]
          ],
          [
            [-50098799, -105844326],
            [27011324, 203010306]
          ]
        ]
      ],
      "b": [123286039, 167833969],
      "a": [
        [
          [0, 0],
          [0, 0],
          [0, 0],
          [0, 0],
          [0, 0],
          [0, 0]
        ],
        [
          [0, 0],
          [3, 10],
          [5, 3],
          [0, 9],
          [1, 0],
          [0, 0]
        ],
        [
          [0, 0],
          [0, 9],
          [0, 0],
          [10, 7],
          [0, 0],
          [0, 0]
        ],
        [
          [0, 0],
          [16, 17],
          [8, 5],
          [0, 13],
          [0, 0],
          [0, 0]
        ],
        [
          [0, 0],
          [0, 10],
          [0, 0],
          [2, 0],
          [0, 0],
          [0, 0]
        ],
        [
          [0, 0],
          [0, 0],
          [0, 0],
          [0, 0],
          [0, 0],
          [0, 0]
        ]
      ]
    },
    {
      "W": [
        [
          [
            [175630480, -17787192],
            [82722075, -149739534]
          ],
          [
            [-16242545, 185799778],
            [-53768937, -200129434]
          ],
          [
            [-62278513, -183893800],
            [-12070109, 225685537]
          ]
        ],
        [
          [
            [102420062, 66534072],
            [155974552, -47530819]
          ],
          [
            [239419550, -17384894],
            [-33403181, 119605951]
          ],
          [
            [36397099, -129912049],
            [243313581, 77049457]
          ]
        ],
        [
          [
            [-196706995, -169346377],
            [-42813674, -146222726]
          ],
          [
            [27017670, 72594687],
            [15425888, 24013013]
          ],
          [
            [27439004, 190567687],
            [-64324960, 92316166]
          ]
        ]
      ],
      "b": [-131592944, 24515305],
      "a": [
        [
          [0, 0],
          [0, 0],
          [0, 0],
          [0, 0],
          [0, 0],
          [0, 0]
        ],
        [
          [0, 0],
          [1, 1],
          [4, 1],
          [1, 2],
          [0, 0],
          [0, 0]
        ],
        [
          [0, 0],
          [0, 3],
          [0, 0],
          [1, 0],
          [2, 0],
          [0, 0]
        ],
        [
          [0, 0],
          [4, 0],
          [8, 0],
          [0, 2],
          [3, 0],
          [0, 0]
        ],
        [
          [0, 0],
          [0, 0],
          [5, 0],
          [1, 0],
          [1, 0],
          [0, 0]
        ],
        [
          [0, 0],
          [0, 0],
          [0, 0],
          [0, 0],
          [0, 0],
          [0, 0]
        ]
      ]
    }
  ],
  "tail": {
    "W": [
      [
        -4262202, -160020515, -60691997, -64580709, 43724947, 102176875,
        -104361832, 48336357, -219462007, -127565563, 23149062, -67244485,
        190788105, -147641987, 50871525, 33882335, 222372204, -304419696,
        2073777, 58403790, -35589688, 63522682, -18452549, -201830238,
        -241009817, 40114425, 138243303, -294044226, 1337004, -96635036,
        -413957834, 5391554
      ],
      [
        17363997, -26034949, -248383000, -31094590, 223683849, -279197067,
        90788350, -132053167, -219645947, -307819843, -287631780, -455766886,
        -227801666, -88263310, -354681402, 49563449, -23018934, 127152115,
        -92365906, -2705662, 120632701, -135447145, -460435331, -37149716,
        97781718, -397710741, -591592968, -298856884, -128791243, -295514256,
        -146002829, -300650984
      ],
      [
        -14435394, 190562576, 240356266, 195356816, -165534720, -95170572,
        -3331512, -362828255, 174464598, -11224695, -99508479, -155367836,
        -202497512, -37490763, 17375790, 105125606, 82507387, 44550125,
        -283166677, 221116453, 14206841, -25796205, -73020183, -99266782,
        -105978005, -8052504, -50220001, -229607061, -37084341, -325311393,
        -253433645, -133264095
      ],
      [
        -145003140, 101397924, 37016284, -159997687, 41810021, -55480707,
        143077821, -142688110, 58537725, -424359769, 238843516, -102096580,
        -11190885, -24116600, -271603167, -239432007, -38268391, 70725553,
        7698284, 97039588, -246558979, 93984447, 33245686, 68546958, 84028348,
        -292326927, -51121034, -8849625, -90963729, -12484421, -66587627,
        -223640442
      ],
      [
        -24179354, -208123296, -44125032, 157568917, 104608402, 147610143,
        13295900, -65711558, -20817531, -102686778, -14398799, -164683476,
        -151998252, 79338625, 97071819, -141675755, -150083080, -147079110,
        -32068077, -96355774, -131500304, -237413347, -254405111, -46803053,
        -129362762, 130029544, 61957195, -60868129, -97451016, -267593980,
        90111971, -286203235
      ],
      [
        36830526, -13906015, -45093697, -196150467, 132433429, 41715462,
        -92790537, 176965520, -135103211, -277721107, 102301769, -26345475,
        220870614, -243975833, 28278332, 67436799, -54926977, 216430336,
        -163044557, -121369295, -114019662, -79618782, -35626505, -225540310,
        -43080684, -119390726, 9747420, 82235873, -101280935, -27906170,
        -136585385, 265699178
      ],
      [
        165439755, 198307812, 12571776, -31086944, -106877185, 103735417,
        -102680944, -136177823, -59293631, 202242166, -313531190, -87002613,
        -424432456, -107030213, 138375372, -253611326, 196685642, -288768202,
        -138618901, 86516276, 198637530, 192819998, -199884236, -235520050,
        -473593265, -7526736, -214076608, -289993644, -23808561, -38795032,
        -256198287, -31338334
      ],
      [
        -131435886, -193820566, -199889123, -28956752, 216232508, 7133770,
        -71722925, -129786178, -234252259, -210694000, 160376027, -242810801,
        301006466, -89275829, 8695549, 44570874, -71576111, -243966222,
        -195280626, -16926374, -97316191, 72394639, -253957778, 98823793,
        -4222454, -292047232, -98685078, -217560455, -244334117, -68010576,
        165329173, -193754911
      ],
      [
        -110810071, -128677577, -82686149, -69334775, -22229113, 20742079,
        75315572, 116044037, -207071766, -58282688, -2377118, 142639622,
        -131928384, 122804098, -105438545, 74376665, -161338419, -106840052,
        -49361248, -130000740, -193823993, -265218168, 3152160, -61802965,
        -182376593, 85785180, 47920331, -104563624, -217584282, -60800768,
        35683259, -81975266
      ],
      [
        -346727014, -184186682, -31318352, 42096175, -44545047, 45560703,
        -100054413, 70619449, -360071838, -70086502, 144696251, -88419378,
        -1924654, 91348872, 105118707, 26740758, -27322933, -236880481,
        -97867347, -263285100, -228915647, -284311503, -154527128, 119691730,
        -75718567, 25678148, 22127254, -44149026, -220348865, -278380424,
        149893612, -275873423
      ]
    ],
    "b": [
      -155909449, 1811457992, -464816660, -21974390, -327213347, 79653330,
      -363815993, -335221887, -268437743, -310049832
    ],
    "a": [
      -4134192943, -6668335437, -653993248, -5365908622, -3600280046,
      -4368807792, 166557341, -7870240688, -2216717243, -4950757980
    ]
  },
  "padding": 1,
  "scale": 1e-9,
  "label": 6
}
