{
  "x": [
    [[0], [116], [0], [0]],
    [[0], [0], [0], [0]],
    [[0], [253], [0], [0]],
    [[0], [0], [0], [0]]
  ],
  "head": {
    "W": [
      [[[0, 0]], [[0, 0]], [[0, 0]]],
      [[[0, 0]], [[0, 0]], [[0, 0]]],
      [[[0, 0]], [[0, 0]], [[0, 0]]]
    ],
    "b": [0, 0],
    "a": [
      [
        [23, -2],
        [-36, -14],
        [18, 14],
        [0, 0]
      ],
      [
        [4, 1],
        [26, 23],
        [2, -12],
        [0, 0]
      ],
      [
        [50, -6],
        [-79, -32],
        [39, 30],
        [0, 0]
      ],
      [
        [-16, 4],
        [-36, 23],
        [43, -10],
        [0, 0]
      ]
    ]
  },
  "backbone": [],
  "tail": {
    "W": [
      [
        -248363043782656, -103046784745472, -424219523416064, 634286742962176,
        157456101539840, 253365858598912, 555988583186432, -115995893039104,
        -584560819568640, -75678783373312, 30930141970432, 1078305360969728,
        270597888147456, -655019825168384, -591853405601792, -334066247270400,
        1008875268472832, 689009860804608, -593945457328128, -810392683020288,
        59202533851136, -1560182437969920, 511147010686976, -502320819339264,
        133341185572864, 528934349307904, -98902493626368, 1149023608111104,
        -1759052711329792, -379137768292352, -406342930006016, 837350716342272
      ],
      [
        -1881574840729600, 62080401014784, 593170685493248, -652700073066496,
        -1304681141764096, -507579537031168, 1038861253738496, 431593478946816,
        -364507129970688, 354819898343424, -852665026215936, 746795021893632,
        -731831154507776, 651223342514176, 560035147022336, -790903732043776,
        -1630817470119936, -1907475238354944, -438505255731200,
        -1293630190911488, -2423865061933056, -2460381142319104,
        2177852019572736, -250540692865024, 948456420016128, 307946839867392,
        160770994208768, -714748056305664, -755111085211648, -567837424877568,
        -810952840708096, -632087048617984
      ],
      [
        1191366080069632, 488622960672768, -1371973749833728, -413088813678592,
        -377618121621504, 545376960512000, 169132808994816, -59986143084544,
        -215985466376192, 68743765950464, -415119360131072, 241286934167552,
        -1201328927801344, -103241610166272, -877792866598912, -434377557278720,
        -108750165770240, 1837590751739904, 1160488218001408, 47826851594240,
        157570387935232, -110339286892544, 597689662177280, 636459459543040,
        -1074262119022592, -673450670686208, 70397324165120, 1001383503331328,
        1644416410320896, -376557768015872, 1420394540040192, 353727097602048
      ],
      [
        559266112995328, 1173708395773952, -686129615470592, -2322001322573824,
        -1048057785352192, 630268935274496, 494695239122944, -181505804468224,
        -620130329427968, 216592365387776, -157129533030400, 399774582833152,
        59347270893568, -147645205053440, -806206432083968, 248757627125760,
        1663842010529792, 663419304804352, 1336356794007552, 773436435595264,
        2237628837527552, -1077225512239104, -645454060584960, -530200257363968,
        698597838422016, 343087154987008, 252808167161856, 361914513227776,
        844641557544960, -1649510241533952, 391913953820672, 207847744864256
      ],
      [
        1068296946319360, 916206919876608, -566452834795520, -1247241725542400,
        -243793852891136, 478872411832320, 222751533039616, -519514814939136,
        -749693319512064, 44798597660672, -430384546316288, -262160693329920,
        -89486994178048, 20859989262336, -46100547371008, 587401739108352,
        -915965193748480, 433132587188224, 180631912841216, -2830345061793792,
        -2577272435376128, -1530079683280896, 447772956295168, 1136725103476736,
        -590735975907328, 135334167838720, -23617089830912, 1076239481700352,
        724138666754048, -58041214959616, -216324752015360, -829281345208320
      ],
      [
        -83202492334080, 532728416043008, -145861266898944, 319885875871744,
        -716962984361984, -45951217565696, -13437303259136, -592196734550016,
        -212403614646272, 126067683622912, -224665058410496, 248985763708928,
        -336590245199872, -493329808621568, -484496671506432, -4354200829952,
        -816274238078976, 1627977959866368, 1424553544777728, -2224037950390272,
        -1244567974182912, -2196721689952256, 1422337610088448,
        -163993410863104, 590211654352896, 710778432782336, 448212519354368,
        1376734318428160, -735326251253760, -890657300283392, 454839687446528,
        1362857413312512
      ],
      [
        -131483444445184, -247158557114368, 350996203044864, 330721507934208,
        279664245342208, -509049086935040, 290570643701760, 483970269577216,
        -495456656293888, -19917250232320, 90524589490176, -57166320893952,
        -5665162258284544, -4139482500562944, -509090560212992, 764781271187456,
        1184876384485376, -1168414580146176, 155778765815808, -826678997680128,
        487392989413376, 417281607729152, 1389473594081280, -383011929456640,
        -1311227343011840, 535385994166272, -499353634471936, 69500758130688,
        -1497112319623168, 1023898527203328, 700445412556800, -1955545988726784
      ],
      [
        194673419223040, 876517663965184, -363777488846848, -2686638140424192,
        -675621374001152, 156079547744256, 123084535234560, -131350887661568,
        -829522131812352, -113571618881536, -634540682903552, 349141012054016,
        408148493991936, 765232041426944, -604136139653120, 378389605122048,
        2395928984027136, 2204482158985216, -61337547833344, -1380295114752000,
        -984144108584960, -1717977523159040, 270809633390592, -307400707932160,
        3506612627046400, 293324053282816, 244650665312256, 762906719289344,
        -859583480332288, -792441330335744, 11173379440640, -1064377251790848
      ],
      [
        -647459541876736, 362211537059840, -552108583550976, 599048415346688,
        335601228316672, 172487648215040, 859582205263872, -452259519397888,
        -428026508607488, -161810778947584, -69706090283008, 1208017399840768,
        557316063625216, -177867547738112, -165184391872512, -141100161433600,
        809810849169408, 1669280647086080, 230745557696512, -1497396324335616,
        -3059384393400320, -669775722184704, -327299190751232,
        -1029094498107392, -141262514552832, -331087184134144, 361658358693888,
        -6134040625152, -986945299677184, -1027305241575424, -622413037436928,
        1035497019277312
      ],
      [
        150355497189376, 1899328624918528, -347441245192192, -2311520260194304,
        -903576226365440, -69432214814720, 869476266409984, -1285952668434432,
        -323792349954048, 65174874619904, -409011211993088, 671709329883136,
        306104366006272, -317164879872000, -272166624952320, 398519244423168,
        -1534320560832512, -115850359078912, -845237215821824,
        -2732005611536384, -2050959492513792, -924769071398912, 593503679676416,
        878834396168192, 475115858952192, -42147105472512, -46721887371264,
        -408959638831104, 679146736844800, -306530507292672, -105195820285952,
        784212978302976
      ]
    ],
    "b": [
      -2534791182286848, 16118021198184448, -2685044975992832, 1686946116009984,
      -2297910314139648, 184781992099840, -3987487097618432, -3386695261093888,
      -4079532810174464, -3159870521999360
    ],
    "a": [
      -123888932948541440, -136626251170316288, -37810220604325888,
      -87223046250692608, -66641382579634176, -90464775896563712,
      -40516045705838592, -151737810133450752, -84545443379281920,
      -94369682852675584
    ]
  },
  "padding": 1,
  "scale": 1e-16,
  "label": 2
}
